{"learner":{"attributes":{"scikit_learn":"{\"_estimator_type\": \"regressor\"}"},"feature_names":["demand_mw","is_weekend","sin_hour","cos_hour","sin_day_of_week","cos_day_of_week","sin_month","cos_month","demand_t1","demand_t2","demand_t24","demand_t168","rolling_mean_3h","rolling_std_3h","rolling_mean_6h","rolling_std_6h","rolling_mean_24h","rolling_std_24h","temperature_2m_C","relative_humidity_2m_","apparent_temperature_C","precipitation_mm","dew_point_2m_C","soil_temperature_0_to_7cm_C","wind_direction_10m_","cloud_cover_","sunshine_duration_s","Industry__including_construction___value_added__constant_2015_US_Y_minus_1","GDP_per_capita__constant_2015_US_Y_minus_1","GDP__constant_2015_US_Y_minus_1","Access_to_electricity____of_population_Y_minus_1","Urban_population____of_total_population_Y_minus_1","Population__total_Y_minus_1","Industry__including_construction___value_added__constant_2015_US_Y_minus_2","GDP_per_capita__constant_2015_US_Y_minus_2","GDP__constant_2015_US_Y_minus_2","Access_to_electricity____of_population_Y_minus_2","Urban_population____of_total_population_Y_minus_2","Population__total_Y_minus_2","Industry__including_construction___value_added__constant_2015_US_Y_minus_5","GDP_per_capita__constant_2015_US_Y_minus_5","GDP__constant_2015_US_Y_minus_5","Access_to_electricity____of_population_Y_minus_5","Urban_population____of_total_population_Y_minus_5","Population__total_Y_minus_5"],"feature_types":["float","int","float","float","float","float","float","float","float","float","float","float","float","float","float","float","float","float","float","int","float","float","float","float","int","int","float","float","float","float","float","float","float","float","float","float","float","float","float","float","float","float","float","float","float"],"gradient_booster":{"model":{"cats":{"enc":[],"feature_segments":[],"sorted_idx":[]},"gbtree_model_param":{"num_parallel_tree":"1","num_trees":"500"},"iteration_indptr":[0,1,2,3,4,5,6,7,8,9,10,11,12,13,14,15,16,17,18,19,20,21,22,23,24,25,26,27,28,29,30,31,32,33,34,35,36,37,38,39,40,41,42,43,44,45,46,47,48,49,50,51,52,53,54,55,56,57,58,59,60,61,62,63,64,65,66,67,68,69,70,71,72,73,74,75,76,77,78,79,80,81,82,83,84,85,86,87,88,89,90,91,92,93,94,95,96,97,98,99,100,101,102,103,104,105,106,107,108,109,110,111,112,113,114,115,116,117,118,119,120,121,122,123,124,125,126,127,128,129,130,131,132,133,134,135,136,137,138,139,140,141,142,143,144,145,146,147,148,149,150,151,152,153,154,155,156,157,158,159,160,161,162,163,164,165,166,167,168,169,170,171,172,173,174,175,176,177,178,179,180,181,182,183,184,185,186,187,188,189,190,191,192,193,194,195,196,197,198,199,200,201,202,203,204,205,206,207,208,209,210,211,212,213,214,215,216,217,218,219,220,221,222,223,224,225,226,227,228,229,230,231,232,233,234,235,236,237,238,239,240,241,242,243,244,245,246,247,248,249,250,251,252,253,254,255,256,257,258,259,260,261,262,263,264,265,266,267,268,269,270,271,272,273,274,275,276,277,278,279,280,281,282,283,284,285,286,287,288,289,290,291,292,293,294,295,296,297,298,299,300,301,302,303,304,305,306,307,308,309,310,311,312,313,314,315,316,317,318,319,320,321,322,323,324,325,326,327,328,329,330,331,332,333,334,335,336,337,338,339,340,341,342,343,344,345,346,347,348,349,350,351,352,353,354,355,356,357,358,359,360,361,362,363,364,365,366,367,368,369,370,371,372,373,374,375,376,377,378,379,380,381,382,383,384,385,386,387,388,389,390,391,392,393,394,395,396,397,398,399,400,401,402,403,404,405,406,407,408,409,410,411,412,413,414,415,416,417,418,419,420,421,422,423,424,425,426,427,428,429,430,431,432,433,434,435,436,437,438,439,440,441,442,443,444,445,446,447,448,449,450,451,452,453,454,455,456,457,458,459,460,461,462,463,464,465,466,467,468,469,470,471,472,473,474,475,476,477,478,479,480,481,482,483,484,485,486,487,488,489,490,491,492,493,494,495,496,497,498,499,500],"tree_info":[0,0,0,0,0,0,0,0,0,0,0,0,0,0,0,0,0,0,0,0,0,0,0,0,0,0,0,0,0,0,0,0,0,0,0,0,0,0,0,0,0,0,0,0,0,0,0,0,0,0,0,0,0,0,0,0,0,0,0,0,0,0,0,0,0,0,0,0,0,0,0,0,0,0,0,0,0,0,0,0,0,0,0,0,0,0,0,0,0,0,0,0,0,0,0,0,0,0,0,0,0,0,0,0,0,0,0,0,0,0,0,0,0,0,0,0,0,0,0,0,0,0,0,0,0,0,0,0,0,0,0,0,0,0,0,0,0,0,0,0,0,0,0,0,0,0,0,0,0,0,0,0,0,0,0,0,0,0,0,0,0,0,0,0,0,0,0,0,0,0,0,0,0,0,0,0,0,0,0,0,0,0,0,0,0,0,0,0,0,0,0,0,0,0,0,0,0,0,0,0,0,0,0,0,0,0,0,0,0,0,0,0,0,0,0,0,0,0,0,0,0,0,0,0,0,0,0,0,0,0,0,0,0,0,0,0,0,0,0,0,0,0,0,0,0,0,0,0,0,0,0,0,0,0,0,0,0,0,0,0,0,0,0,0,0,0,0,0,0,0,0,0,0,0,0,0,0,0,0,0,0,0,0,0,0,0,0,0,0,0,0,0,0,0,0,0,0,0,0,0,0,0,0,0,0,0,0,0,0,0,0,0,0,0,0,0,0,0,0,0,0,0,0,0,0,0,0,0,0,0,0,0,0,0,0,0,0,0,0,0,0,0,0,0,0,0,0,0,0,0,0,0,0,0,0,0,0,0,0,0,0,0,0,0,0,0,0,0,0,0,0,0,0,0,0,0,0,0,0,0,0,0,0,0,0,0,0,0,0,0,0,0,0,0,0,0,0,0,0,0,0,0,0,0,0,0,0,0,0,0,0,0,0,0,0,0,0,0,0,0,0,0,0,0,0,0,0,0,0,0,0,0,0,0,0,0,0,0,0,0,0,0,0,0,0,0,0,0,0,0,0,0,0,0,0,0,0,0,0,0,0,0,0,0,0,0,0,0,0,0,0,0,0,0,0,0,0,0,0,0,0,0,0,0,0,0,0,0,0,0,0,0,0,0,0,0,0,0,0,0],"trees":[{"base_weights":[-6.694732E-1,-1.4640956E3,2.528736E3,-2.5404001E3,-5.6137317E2,1.5581047E3,4.0800774E3,-3.3730059E3,-2.0850642E3,-1.0817898E3,-9.420315E1,1.0630416E3,2.2152346E3,3.5404238E3,5.313872E3,-4.0046033E3,-3.091273E3,-2.3907588E3,-1.8037238E3,-1.2972555E3,-8.4553546E2,-3.5911557E2,2.1474884E2,8.094409E2,1.3657682E3,1.9423904E3,2.510796E3,3.2031228E3,3.9678147E3,4.8946177E3,6.0317905E3,-4.524427E2,-3.826424E3,-2.1826597E3,-3.139525E3,-1.7056079E3,-2.4552542E3,-1.6566232E3,-2.1177595E3,-1.1279601E3,-1.6192943E3,-6.8142163E2,-1.1450258E3,-3.971613E2,3.406404E3,4.218672E2,-5.4310493E1,1.0236348E3,5.160627E2,1.5782874E3,1.0547701E3,2.1718003E3,1.6622384E3,2.714226E3,2.2255864E3,3.4539814E3,2.9892122E3,3.7360107E3,4.165111E3,4.6770317E3,5.1803186E2,5.6291595E2,6.363661E3,-3.695571E2,-4.0450388E2,-1.8933926E2,-2.454556E2,-3.384844E2,-2.9759995E2,-1.5602977E2,-2.6840195E2,-2.6349426E2,-2.3127129E2,-1.232678E2,-1.7460759E2,-2.2429785E2,-1.9756772E2,-7.871356E1,-1.2246667E2,-1.7535556E2,-1.5117955E2,-4.7695095E1,-7.6070366E1,-1.2350883E2,-1.0121717E2,-2.1890015E2,-3.571962E1,2.4204529E2,4.9545743E2,7.06238E1,3.0877537E1,-2.3011402E1,6.557876E0,1.3119301E2,9.0878716E1,3.9395103E1,6.7314E1,1.9659158E2,1.471655E2,9.0413124E1,1.21363335E2,2.6094626E2,2.0568645E2,1.4936374E2,1.7968394E2,3.0387106E2,2.5944803E2,2.0690038E2,2.3693896E2,3.9280005E2,3.3131918E2,2.7862085E2,3.1833542E2,4.1844955E2,3.6574368E2,4.396981E2,4.0122604E2,5.048541E2,4.577308E2,6.086721E2,6.659323E2],"categories":[],"categories_nodes":[],"categories_segments":[],"categories_sizes":[],"default_left":[1,0,0,0,0,0,0,0,0,0,1,0,0,0,0,0,0,0,0,0,0,1,0,0,0,0,0,0,0,0,0,0,0,0,0,0,0,0,0,0,0,0,0,1,0,0,0,0,0,0,0,0,0,0,0,0,0,0,0,0,0,0,0,0,0,0,0,0,0,0,0,0,0,0,0,0,0,0,0,0,0,0,0,0,0,0,0,0,0,0,0,0,0,0,0,0,0,0,0,0,0,0,0,0,0,0,0,0,0,0,0,0,0,0,0,0,0,0,0,0,0],"id":0,"left_children":[1,3,5,7,9,11,13,15,17,19,21,23,25,27,29,31,33,35,37,39,41,43,45,47,49,51,53,55,57,59,61,-1,63,65,67,69,71,73,75,77,79,81,83,85,87,89,91,93,95,97,99,101,103,105,107,109,111,113,115,117,-1,-1,119,-1,-1,-1,-1,-1,-1,-1,-1,-1,-1,-1,-1,-1,-1,-1,-1,-1,-1,-1,-1,-1,-1,-1,-1,-1,-1,-1,-1,-1,-1,-1,-1,-1,-1,-1,-1,-1,-1,-1,-1,-1,-1,-1,-1,-1,-1,-1,-1,-1,-1,-1,-1,-1,-1,-1,-1,-1,-1],"loss_changes":[2.2293614E11,3.7068194E10,3.323224E10,6.59071E9,5.044945E9,4.4155044E9,5.637341E9,1.0821386E9,9.634898E8,4.9858355E8,8.951364E8,5.9364454E8,4.6558618E8,8.397046E8,7.479378E8,1.581138E8,1.7983078E8,2.3399014E8,2.6737869E8,2.7796787E8,2.2948992E8,8.4487917E8,2.8138912E8,2.6452992E8,2.3164314E8,1.9164058E8,1.5624192E8,1.6729498E8,1.035305E8,7.747174E7,9.084928E7,0E0,2.5587712E7,1.2498432E7,1.5203123E8,6.2207104E7,1.2002509E8,1.4946406E8,2.878464E7,1.100119E8,2.2837248E7,4.873997E7,1.8576128E7,4.1671053E8,7.806643E7,9.153446E7,4.632116E7,7.949696E7,3.3915296E7,8.370125E7,3.3267584E7,7.848806E7,2.8452096E7,5.53728E7,2.144256E7,8.822579E7,6.183629E7,2.7229184E7,3.1903744E7,1.1679744E7,0E0,0E0,1.388544E6,0E0,0E0,0E0,0E0,0E0,0E0,0E0,0E0,0E0,0E0,0E0,0E0,0E0,0E0,0E0,0E0,0E0,0E0,0E0,0E0,0E0,0E0,0E0,0E0,0E0,0E0,0E0,0E0,0E0,0E0,0E0,0E0,0E0,0E0,0E0,0E0,0E0,0E0,0E0,0E0,0E0,0E0,0E0,0E0,0E0,0E0,0E0,0E0,0E0,0E0,0E0,0E0,0E0,0E0,0E0,0E0,0E0,0E0],"parents":[2147483647,0,0,1,1,2,2,3,3,4,4,5,5,6,6,7,7,8,8,9,9,10,10,11,11,12,12,13,13,14,14,15,15,16,16,17,17,18,18,19,19,20,20,21,21,22,22,23,23,24,24,25,25,26,26,27,27,28,28,29,29,30,30,32,32,33,33,34,34,35,35,36,36,37,37,38,38,39,39,40,40,41,41,42,42,43,43,44,44,45,45,46,46,47,47,48,48,49,49,50,50,51,51,52,52,53,53,54,54,55,55,56,56,57,57,58,58,59,59,62,62],"right_children":[2,4,6,8,10,12,14,16,18,20,22,24,26,28,30,32,34,36,38,40,42,44,46,48,50,52,54,56,58,60,62,-1,64,66,68,70,72,74,76,78,80,82,84,86,88,90,92,94,96,98,100,102,104,106,108,110,112,114,116,118,-1,-1,120,-1,-1,-1,-1,-1,-1,-1,-1,-1,-1,-1,-1,-1,-1,-1,-1,-1,-1,-1,-1,-1,-1,-1,-1,-1,-1,-1,-1,-1,-1,-1,-1,-1,-1,-1,-1,-1,-1,-1,-1,-1,-1,-1,-1,-1,-1,-1,-1,-1,-1,-1,-1,-1,-1,-1,-1,-1,-1],"split_conditions":[8.862E3,6.768E3,1.1177E4,5.527E3,7.696E3,1.001E4,1.285E4,4.69E3,6.192E3,7.259E3,8.258E3,9.427E3,1.0584E4,1.1974E4,1.3816E4,4.007E3,-7.0710677E-1,-7.0710677E-1,5E-1,5E-1,5E-1,9.961333E3,2.5881904E-1,2.5881904E-1,2.5881904E-1,2.5881904E-1,5E-1,6.123234E-17,1.2309E4,1.3343E4,1.43E4,-4.524427E2,7.0710677E-1,7.1E1,5.089E3,6.123234E-17,5.835E3,-7.0710677E-1,6.5E3,-7.0710677E-1,6.991E3,-7.0710677E-1,7.524E3,6.4503335E3,1.2358667E4,-7.0710677E-1,8.491E3,-7.0710677E-1,9.162E3,-8.660254E-1,9.725E3,-8.660254E-1,1.0269E4,-8.660254E-1,1.0867E4,-8.660254E-1,1.155E4,-8.660254E-1,2.5881904E-1,-8.660254E-1,5.1803186E2,5.6291595E2,1.4716E4,-3.695571E2,-4.0450388E2,-1.8933926E2,-2.454556E2,-3.384844E2,-2.9759995E2,-1.5602977E2,-2.6840195E2,-2.6349426E2,-2.3127129E2,-1.232678E2,-1.7460759E2,-2.2429785E2,-1.9756772E2,-7.871356E1,-1.2246667E2,-1.7535556E2,-1.5117955E2,-4.7695095E1,-7.6070366E1,-1.2350883E2,-1.0121717E2,-2.1890015E2,-3.571962E1,2.4204529E2,4.9545743E2,7.06238E1,3.0877537E1,-2.3011402E1,6.557876E0,1.3119301E2,9.0878716E1,3.9395103E1,6.7314E1,1.9659158E2,1.471655E2,9.0413124E1,1.21363335E2,2.6094626E2,2.0568645E2,1.4936374E2,1.7968394E2,3.0387106E2,2.5944803E2,2.0690038E2,2.3693896E2,3.9280005E2,3.3131918E2,2.7862085E2,3.1833542E2,4.1844955E2,3.6574368E2,4.396981E2,4.0122604E2,5.048541E2,4.577308E2,6.086721E2,6.659323E2],"split_indices":[0,0,0,0,0,0,0,0,0,0,0,0,0,0,0,0,2,2,3,3,3,12,3,3,3,3,3,3,0,0,0,0,3,19,0,3,0,2,0,2,0,2,0,12,12,2,0,2,0,2,0,2,0,2,0,2,0,2,3,2,0,0,0,0,0,0,0,0,0,0,0,0,0,0,0,0,0,0,0,0,0,0,0,0,0,0,0,0,0,0,0,0,0,0,0,0,0,0,0,0,0,0,0,0,0,0,0,0,0,0,0,0,0,0,0,0,0,0,0,0,0],"split_type":[0,0,0,0,0,0,0,0,0,0,0,0,0,0,0,0,0,0,0,0,0,0,0,0,0,0,0,0,0,0,0,0,0,0,0,0,0,0,0,0,0,0,0,0,0,0,0,0,0,0,0,0,0,0,0,0,0,0,0,0,0,0,0,0,0,0,0,0,0,0,0,0,0,0,0,0,0,0,0,0,0,0,0,0,0,0,0,0,0,0,0,0,0,0,0,0,0,0,0,0,0,0,0,0,0,0,0,0,0,0,0,0,0,0,0,0,0,0,0,0,0],"sum_hessian":[6.0225E4,3.8152E4,2.2073E4,1.7402E4,2.075E4,1.3579E4,8.494E3,6.15E3,1.1252E4,9.815E3,1.0935E4,7.746E3,5.833E3,5.912E3,2.582E3,1.893E3,4.257E3,5.389E3,5.863E3,5.131E3,4.684E3,5.887E3,5.048E3,4.217E3,3.529E3,3.037E3,2.796E3,3.309E3,2.603E3,1.635E3,9.47E2,4.77E2,1.416E3,2.17E2,4.04E3,4.66E2,4.923E3,3.997E3,1.866E3,3.366E3,1.765E3,3.028E3,1.656E3,5.829E3,5.8E1,2.852E3,2.196E3,2.436E3,1.781E3,2.094E3,1.435E3,1.666E3,1.371E3,1.627E3,1.169E3,1.516E3,1.793E3,1.206E3,1.397E3,9.38E2,6.97E2,4.36E2,5.11E2,8.97E2,5.19E2,1.09E2,1.08E2,1.608E3,2.432E3,4.08E2,5.8E1,2.17E3,2.753E3,6.99E2,3.298E3,9.84E2,8.82E2,7.46E2,2.62E3,7.78E2,9.87E2,8.48E2,2.18E3,9.82E2,6.74E2,1.26E2,5.703E3,3.7E1,2.1E1,8.1E2,2.042E3,8.9E2,1.306E3,6.91E2,1.745E3,1.004E3,7.77E2,4.48E2,1.646E3,7.4E2,6.95E2,3.42E2,1.324E3,6.14E2,7.57E2,4.32E2,1.195E3,5.67E2,6.02E2,3.41E2,1.175E3,8.84E2,9.09E2,1.72E2,1.034E3,5.44E2,8.53E2,1.88E2,7.5E2,2.75E2,2.36E2],"tree_param":{"num_deleted":"0","num_feature":"45","num_nodes":"121","size_leaf_vector":"1"}},{"base_weights":[-4.5570226E0,-1.2925771E3,2.313292E3,-2.2954065E3,-4.935156E2,1.4541315E3,3.705988E3,-3.0907017E3,-1.906536E3,-9.392629E2,-7.500964E0,9.8919366E2,2.0090079E3,3.171678E3,4.7067773E3,-3.6718435E3,-2.8421196E3,-2.2179595E3,-1.6725721E3,-1.1517435E3,-6.854975E2,-2.4523186E1,3.5527283E3,7.412283E2,1.2221276E3,1.8017185E3,2.3471545E3,2.8449302E3,3.4703425E3,4.3434585E3,5.4303696E3,-3.9647197E3,-3.4455183E3,-2.0101572E3,-2.8857563E3,-1.5400767E3,-2.2812917E3,-1.5357859E3,-1.9570962E3,-9.8560144E2,-1.3957189E3,-4.9931506E2,-9.2870294E2,-2.7737317E2,2.5010168E2,2.536221E3,4.5059146E2,9.28354E2,4.841409E2,1.4143422E3,9.353626E2,2.0085212E3,1.5635516E3,2.5746948E3,2.121514E3,3.0267458E3,2.6025671E3,3.9061877E3,3.3755183E3,4.098253E3,4.5755776E3,5.2190093E3,6.009948E2,-4.2717795E2,-3.8103107E2,-3.4504086E2,-7.4037224E1,-2.2509917E2,-1.5603358E2,-3.098365E2,-2.7298923E2,-1.389968E2,-2.2332954E2,-2.1790552E2,-2.513347E2,-1.1269134E2,-1.6197154E2,-2.0868079E2,-1.820305E2,-5.918707E1,-1.08699585E2,-1.5119391E2,-1.2671862E2,-2.0026571E1,-5.9996246E1,-1.031418E2,-8.250579E1,-2.1731682E2,-2.381643E1,4.4303738E1,7.8212184E-1,2.6931256E2,4.355775E1,1.2382816E2,8.507299E1,3.470459E1,5.5966824E1,1.7474754E2,1.3209952E2,8.0546684E1,1.0889587E2,2.414138E2,1.904918E2,1.4160497E2,1.777523E2,2.9945728E2,2.4593999E2,1.979399E2,2.2540596E2,3.263198E2,2.9251266E2,2.4222008E2,2.7060422E2,3.680753E2,4.6051782E2,3.2289417E2,3.6037778E2,4.4502652E2,3.9957944E2,4.7787256E2,4.414116E2,5.053564E2,5.467149E2],"categories":[],"categories_nodes":[],"categories_segments":[],"categories_sizes":[],"default_left":[1,0,0,0,0,0,0,0,0,0,1,0,0,0,0,0,0,0,0,0,0,1,0,0,0,0,0,0,0,0,0,0,1,0,0,0,0,0,0,0,0,0,0,1,0,0,0,0,0,0,0,0,0,0,0,0,0,0,0,0,0,0,0,0,0,0,0,0,0,0,0,0,0,0,0,0,0,0,0,0,0,0,0,0,0,0,0,0,0,0,0,0,0,0,0,0,0,0,0,0,0,0,0,0,0,0,0,0,0,0,0,0,0,0,0,0,0,0,0,0,0,0,0],"id":1,"left_children":[1,3,5,7,9,11,13,15,17,19,21,23,25,27,29,31,33,35,37,39,41,43,45,47,49,51,53,55,57,59,61,63,65,67,69,71,73,75,77,79,81,83,85,87,89,91,-1,93,95,97,99,101,103,105,107,109,111,113,115,117,119,121,-1,-1,-1,-1,-1,-1,-1,-1,-1,-1,-1,-1,-1,-1,-1,-1,-1,-1,-1,-1,-1,-1,-1,-1,-1,-1,-1,-1,-1,-1,-1,-1,-1,-1,-1,-1,-1,-1,-1,-1,-1,-1,-1,-1,-1,-1,-1,-1,-1,-1,-1,-1,-1,-1,-1,-1,-1,-1,-1,-1,-1],"loss_changes":[1.7957698E11,3.0981997E10,2.5703678E10,5.2968E9,4.6620795E9,3.426607E9,4.3682693E9,8.027341E8,8.355103E8,6.0446515E8,6.2405574E8,4.1686886E8,4.2040115E8,5.1193037E8,7.259259E8,9.78985E7,1.3749248E8,2.0848435E8,2.5312051E8,2.4620851E8,2.3128243E8,7.1167917E8,3.604909E7,1.6821606E8,2.0416563E8,1.8205286E8,1.1257446E8,1.0488627E8,1.0207846E8,8.956314E7,8.488755E7,1.8192384E7,1.0104832E7,1.8154176E7,1.1574272E8,4.112051E7,1.0161562E8,1.5084851E8,3.4048E7,1.4455347E8,3.5011584E7,8.719571E7,2.2761728E7,3.9611798E8,2.2965251E8,7.396544E6,0E0,4.773581E7,1.5119936E7,6.703821E7,2.9030144E7,7.982541E7,5.2778496E7,4.7821824E7,1.7388544E7,2.5439232E7,1.4049792E7,6.057779E7,6.524928E7,1.5939584E7,1.0688512E7,1.230848E6,0E0,0E0,0E0,0E0,0E0,0E0,0E0,0E0,0E0,0E0,0E0,0E0,0E0,0E0,0E0,0E0,0E0,0E0,0E0,0E0,0E0,0E0,0E0,0E0,0E0,0E0,0E0,0E0,0E0,0E0,0E0,0E0,0E0,0E0,0E0,0E0,0E0,0E0,0E0,0E0,0E0,0E0,0E0,0E0,0E0,0E0,0E0,0E0,0E0,0E0,0E0,0E0,0E0,0E0,0E0,0E0,0E0,0E0,0E0,0E0,0E0],"parents":[2147483647,0,0,1,1,2,2,3,3,4,4,5,5,6,6,7,7,8,8,9,9,10,10,11,11,12,12,13,13,14,14,15,15,16,16,17,17,18,18,19,19,20,20,21,21,22,22,23,23,24,24,25,25,26,26,27,27,28,28,29,29,30,30,31,31,32,32,33,33,34,34,35,35,36,36,37,37,38,38,39,39,40,40,41,41,42,42,43,43,44,44,45,45,47,47,48,48,49,49,50,50,51,51,52,52,53,53,54,54,55,55,56,56,57,57,58,58,59,59,60,60,61,61],"right_children":[2,4,6,8,10,12,14,16,18,20,22,24,26,28,30,32,34,36,38,40,42,44,46,48,50,52,54,56,58,60,62,64,66,68,70,72,74,76,78,80,82,84,86,88,90,92,-1,94,96,98,100,102,104,106,108,110,112,114,116,118,120,122,-1,-1,-1,-1,-1,-1,-1,-1,-1,-1,-1,-1,-1,-1,-1,-1,-1,-1,-1,-1,-1,-1,-1,-1,-1,-1,-1,-1,-1,-1,-1,-1,-1,-1,-1,-1,-1,-1,-1,-1,-1,-1,-1,-1,-1,-1,-1,-1,-1,-1,-1,-1,-1,-1,-1,-1,-1,-1,-1,-1,-1],"split_conditions":[8.924E3,6.747E3,1.1228E4,5.459E3,7.813E3,1.001E4,1.275E4,4.604E3,6.085E3,7.327E3,1.0662E4,9.392E3,1.0726E4,1.185E4,1.3816E4,4.183E3,-7.0710677E-1,-7.0710677E-1,5E-1,2.5881904E-1,2.5881904E-1,8.336E3,1.2437E4,2.5881904E-1,2.5881904E-1,2.5881904E-1,2.5881904E-1,5E-1,-8.660254E-1,1.32E4,1.4716E4,3.778E3,6.748E3,8.660254E-1,5.041E3,5.3429877E2,7.0710677E-1,-7.0710677E-1,6.427E3,-7.0710677E-1,7.059E3,-7.0710677E-1,7.568E3,6.474E3,2.5881904E-1,1.383E4,4.5059146E2,-8.660254E-1,9.074E3,-8.660254E-1,9.725E3,-8.660254E-1,1.0442E4,-8.660254E-1,1.0963E4,-8.660254E-1,1.1443E4,1.1738208E4,1.2309E4,-8.660254E-1,5E-1,1.43E4,6.009948E2,-4.2717795E2,-3.8103107E2,-3.4504086E2,-7.4037224E1,-2.2509917E2,-1.5603358E2,-3.098365E2,-2.7298923E2,-1.389968E2,-2.2332954E2,-2.1790552E2,-2.513347E2,-1.1269134E2,-1.6197154E2,-2.0868079E2,-1.820305E2,-5.918707E1,-1.08699585E2,-1.5119391E2,-1.2671862E2,-2.0026571E1,-5.9996246E1,-1.031418E2,-8.250579E1,-2.1731682E2,-2.381643E1,4.4303738E1,7.8212184E-1,2.6931256E2,4.355775E1,1.2382816E2,8.507299E1,3.470459E1,5.5966824E1,1.7474754E2,1.3209952E2,8.0546684E1,1.0889587E2,2.414138E2,1.904918E2,1.4160497E2,1.777523E2,2.9945728E2,2.4593999E2,1.979399E2,2.2540596E2,3.263198E2,2.9251266E2,2.4222008E2,2.7060422E2,3.680753E2,4.6051782E2,3.2289417E2,3.6037778E2,4.4502652E2,3.9957944E2,4.7787256E2,4.414116E2,5.053564E2,5.467149E2],"split_indices":[0,0,0,0,0,0,0,0,0,0,12,0,0,0,0,0,2,2,3,3,3,0,12,3,3,3,3,3,2,0,0,0,8,7,0,15,3,2,0,2,0,2,0,12,3,10,0,2,0,2,0,2,0,2,0,2,0,16,0,2,3,0,0,0,0,0,0,0,0,0,0,0,0,0,0,0,0,0,0,0,0,0,0,0,0,0,0,0,0,0,0,0,0,0,0,0,0,0,0,0,0,0,0,0,0,0,0,0,0,0,0,0,0,0,0,0,0,0,0,0,0,0,0],"split_type":[0,0,0,0,0,0,0,0,0,0,0,0,0,0,0,0,0,0,0,0,0,0,0,0,0,0,0,0,0,0,0,0,0,0,0,0,0,0,0,0,0,0,0,0,0,0,0,0,0,0,0,0,0,0,0,0,0,0,0,0,0,0,0,0,0,0,0,0,0,0,0,0,0,0,0,0,0,0,0,0,0,0,0,0,0,0,0,0,0,0,0,0,0,0,0,0,0,0,0,0,0,0,0,0,0,0,0,0,0,0,0,0,0,0,0,0,0,0,0,0,0,0,0],"sum_hessian":[6.0149E4,3.8664E4,2.1485E4,1.7145E4,2.1519E4,1.3289E4,8.196E3,5.628E3,1.1517E4,1.1224E4,1.0295E4,7.232E3,6.057E3,5.346E3,2.85E3,1.682E3,3.946E3,4.937E3,6.58E3,6.107E3,5.117E3,1.0247E4,4.8E1,3.505E3,3.727E3,3.759E3,2.298E3,2.558E3,2.788E3,1.902E3,9.48E2,7.26E2,9.56E2,1.99E2,3.747E3,4.24E2,4.513E3,4.448E3,2.132E3,3.636E3,2.471E3,2.9E3,2.217E3,5.335E3,4.912E3,2.5E1,2.3E1,2.027E3,1.478E3,2.229E3,1.498E3,2.008E3,1.751E3,1.139E3,1.159E3,1.455E3,1.103E3,4.91E2,2.297E3,9.34E2,9.68E2,7.02E2,2.46E2,2.34E2,4.92E2,9.54E2,2E0,1.27E2,7.2E1,1.577E3,2.17E3,3.51E2,7.3E1,3.14E3,1.373E3,7.6E2,3.688E3,1.087E3,1.045E3,7.46E2,2.89E3,1.292E3,1.179E3,7.31E2,2.169E3,1.109E3,1.108E3,1.07E2,5.228E3,2.734E3,2.178E3,2.3E1,2E0,4.03E2,1.624E3,5.27E2,9.51E2,4.84E2,1.745E3,8.15E2,6.83E2,4.04E2,1.604E3,1.041E3,7.1E2,2.4E2,8.99E2,5.67E2,5.92E2,4.28E2,1.027E3,4.11E2,6.92E2,3.76E2,1.15E2,1.408E3,8.89E2,2.01E2,7.33E2,4.16E2,5.52E2,4.34E2,2.68E2],"tree_param":{"num_deleted":"0","num_feature":"45","num_nodes":"123","size_leaf_vector":"1"}},{"base_weights":[-1.9501694E0,-1.2231577E3,1.9789205E3,-2.1509524E3,-5.634417E2,1.1746998E3,3.2538647E3,-2.8496895E3,-1.8245197E3,-9.8980035E2,-1.6300313E2,7.395054E2,1.6682715E3,2.7660837E3,4.1884424E3,-3.3550603E3,-2.6459187E3,-2.0918245E3,-1.6084314E3,-1.1990325E3,-8.0815094E2,-3.9450998E2,5.1730515E1,5.3036145E2,9.5076294E2,1.4357557E3,1.93224E3,2.4558892E3,3.0489133E3,3.8080127E3,4.7721694E3,-3.6809507E3,-3.1906292E3,-2.5319192E3,-2.8954207E3,-1.4231537E3,-2.146371E3,-1.4835399E3,-1.8620051E3,-1.0561978E3,-1.4255808E3,-6.691304E2,-1.0600431E3,-4.2796E2,3.1798196E3,2.2667528E2,-1.6906789E2,6.941754E2,3.0710434E2,1.1237627E3,6.8702997E2,1.623265E3,1.1966957E3,2.0999937E3,1.6938958E3,2.665329E3,2.266904E3,2.8832783E3,3.2367415E3,3.6251848E3,3.9953494E3,4.4803854E2,5.1509443E3,-3.6893002E2,-1.16536095E2,-3.2005905E2,-5.451074E0,-2.7123962E2,-2.3773982E2,-3.0507803E2,-2.7409995E2,-1.9328813E2,-1.2517493E2,-2.0521854E2,-2.3589973E2,-1.0780808E2,-1.5604176E2,-1.9474303E2,-1.6659055E2,-6.7806496E1,-1.1442222E2,-1.4899335E2,-1.1892816E2,-7.885953E1,-5.6174305E1,-1.1990768E2,-9.783581E1,-2.6304441E1,-7.158533E1,2.296875E2,4.199164E2,4.8454784E1,1.3198641E1,-2.891873E1,-2.1715076E0,9.104759E1,6.0773785E1,2.5714111E1,5.3366028E1,1.4407504E2,1.0384049E2,6.001433E1,8.348483E1,1.9584236E2,1.5261873E2,1.08958275E2,1.3473994E2,2.3582964E2,2.0106006E2,1.7340181E2,1.2857982E2,3.0736392E2,2.5490274E2,2.1072928E2,2.381575E2,3.054388E2,2.683496E2,3.3939856E2,3.0689578E2,3.8205234E2,3.442597E2,4.1895108E2,3.8383505E2,4.9020386E2,5.427951E2],"categories":[],"categories_nodes":[],"categories_segments":[],"categories_sizes":[],"default_left":[1,0,0,0,0,0,0,0,0,0,1,0,0,0,0,0,0,0,0,0,0,1,0,0,0,0,0,0,0,0,0,1,1,0,0,0,0,0,0,0,0,0,0,0,0,0,0,0,0,0,0,0,0,0,0,0,0,0,0,0,0,0,0,0,0,0,0,0,0,0,0,0,0,0,0,0,0,0,0,0,0,0,0,0,0,0,0,0,0,0,0,0,0,0,0,0,0,0,0,0,0,0,0,0,0,0,0,0,0,0,0,0,0,0,0,0,0,0,0,0,0,0,0,0,0],"id":2,"left_children":[1,3,5,7,9,11,13,15,17,19,21,23,25,27,29,31,33,35,37,39,41,43,45,47,49,51,53,55,57,59,61,63,65,67,69,71,73,75,77,79,81,83,85,87,89,91,93,95,97,99,101,103,105,107,109,111,113,115,117,119,121,-1,123,-1,-1,-1,-1,-1,-1,-1,-1,-1,-1,-1,-1,-1,-1,-1,-1,-1,-1,-1,-1,-1,-1,-1,-1,-1,-1,-1,-1,-1,-1,-1,-1,-1,-1,-1,-1,-1,-1,-1,-1,-1,-1,-1,-1,-1,-1,-1,-1,-1,-1,-1,-1,-1,-1,-1,-1,-1,-1,-1,-1,-1,-1],"loss_changes":[1.450368E11,2.2700876E10,2.3441523E10,3.510362E9,3.7009336E9,3.0109E9,4.0201257E9,4.96341E8,6.0359066E8,3.9806566E8,5.5580416E8,3.288379E8,4.0047206E8,5.025874E8,6.5490944E8,6.359757E7,9.224806E7,1.6815514E8,1.8139443E8,1.5630848E8,1.961984E8,6.446009E8,2.2411658E8,1.36861E8,1.683625E8,1.5481395E8,1.193513E8,1.039145E8,8.515174E7,4.85376E7,1.0866278E8,5.467136E6,2.9254656E7,6.0788736E7,1.7811456E7,2.8771456E7,8.203469E7,1.1991552E8,2.883584E7,9.891277E7,2.686208E7,4.607501E7,2.151808E7,2.5291731E8,3.5356256E7,7.8976E7,4.539405E7,3.984979E7,1.783808E7,5.9031296E7,1.8391616E7,6.06848E7,2.3407104E7,3.6821504E7,1.864704E7,5.446861E7,2.1831168E7,4.728627E7,2.691584E7,2.0445184E7,1.1323392E7,0E0,8.694784E6,0E0,0E0,0E0,0E0,0E0,0E0,0E0,0E0,0E0,0E0,0E0,0E0,0E0,0E0,0E0,0E0,0E0,0E0,0E0,0E0,0E0,0E0,0E0,0E0,0E0,0E0,0E0,0E0,0E0,0E0,0E0,0E0,0E0,0E0,0E0,0E0,0E0,0E0,0E0,0E0,0E0,0E0,0E0,0E0,0E0,0E0,0E0,0E0,0E0,0E0,0E0,0E0,0E0,0E0,0E0,0E0,0E0,0E0,0E0,0E0,0E0,0E0],"parents":[2147483647,0,0,1,1,2,2,3,3,4,4,5,5,6,6,7,7,8,8,9,9,10,10,11,11,12,12,13,13,14,14,15,15,16,16,17,17,18,18,19,19,20,20,21,21,22,22,23,23,24,24,25,25,26,26,27,27,28,28,29,29,30,30,31,31,32,32,33,33,34,34,35,35,36,36,37,37,38,38,39,39,40,40,41,41,42,42,43,43,44,44,45,45,46,46,47,47,48,48,49,49,50,50,51,51,52,52,53,53,54,54,55,55,56,56,57,57,58,58,59,59,60,60,62,62],"right_children":[2,4,6,8,10,12,14,16,18,20,22,24,26,28,30,32,34,36,38,40,42,44,46,48,50,52,54,56,58,60,62,64,66,68,70,72,74,76,78,80,82,84,86,88,90,92,94,96,98,100,102,104,106,108,110,112,114,116,118,120,122,-1,124,-1,-1,-1,-1,-1,-1,-1,-1,-1,-1,-1,-1,-1,-1,-1,-1,-1,-1,-1,-1,-1,-1,-1,-1,-1,-1,-1,-1,-1,-1,-1,-1,-1,-1,-1,-1,-1,-1,-1,-1,-1,-1,-1,-1,-1,-1,-1,-1,-1,-1,-1,-1,-1,-1,-1,-1,-1,-1,-1,-1,-1,-1],"split_conditions":[8.747E3,6.59E3,1.107E4,5.345E3,7.589E3,9.808E3,1.2656E4,4.519E3,5.978E3,7.059E3,8.094E3,9.225E3,1.0442E4,1.1735E4,1.365E4,4.007E3,7.0710677E-1,-7.0710677E-1,5E-1,2.5881904E-1,5E-1,1.0437667E4,2.5881904E-1,2.5881904E-1,2.5881904E-1,2.5881904E-1,5E-1,6.123234E-17,1.2172E4,1.3096E4,1.43E4,5.04E3,6.679E3,4.987E3,4.987E3,2.0125E2,7.0710677E-1,-7.0710677E-1,7.2229585E3,-7.0710677E-1,7.7885415E3,-5E-1,7.259E3,5E-1,1.2437E4,-7.0710677E-1,8.436E3,-7.0710677E-1,2.75E1,-8.660254E-1,9.574E3,-8.660254E-1,1.0184E4,-8.660254E-1,8.660254E-1,-8.660254E-1,1.1326E4,5E-1,5E-1,5E-1,5E-1,4.4803854E2,1.4716E4,-3.6893002E2,-1.16536095E2,-3.2005905E2,-5.451074E0,-2.7123962E2,-2.3773982E2,-3.0507803E2,-2.7409995E2,-1.9328813E2,-1.2517493E2,-2.0521854E2,-2.3589973E2,-1.0780808E2,-1.5604176E2,-1.9474303E2,-1.6659055E2,-6.7806496E1,-1.1442222E2,-1.4899335E2,-1.1892816E2,-7.885953E1,-5.6174305E1,-1.1990768E2,-9.783581E1,-2.6304441E1,-7.158533E1,2.296875E2,4.199164E2,4.8454784E1,1.3198641E1,-2.891873E1,-2.1715076E0,9.104759E1,6.0773785E1,2.5714111E1,5.3366028E1,1.4407504E2,1.0384049E2,6.001433E1,8.348483E1,1.9584236E2,1.5261873E2,1.08958275E2,1.3473994E2,2.3582964E2,2.0106006E2,1.7340181E2,1.2857982E2,3.0736392E2,2.5490274E2,2.1072928E2,2.381575E2,3.054388E2,2.683496E2,3.3939856E2,3.0689578E2,3.8205234E2,3.442597E2,4.1895108E2,3.8383505E2,4.9020386E2,5.427951E2],"split_indices":[0,0,0,0,0,0,0,0,0,0,0,0,0,0,0,0,3,2,3,3,3,12,3,3,3,3,3,3,0,0,0,8,8,0,0,26,3,2,16,2,16,3,0,3,12,2,0,2,18,2,0,2,0,2,2,2,0,3,3,3,3,0,0,0,0,0,0,0,0,0,0,0,0,0,0,0,0,0,0,0,0,0,0,0,0,0,0,0,0,0,0,0,0,0,0,0,0,0,0,0,0,0,0,0,0,0,0,0,0,0,0,0,0,0,0,0,0,0,0,0,0,0,0,0,0],"split_type":[0,0,0,0,0,0,0,0,0,0,0,0,0,0,0,0,0,0,0,0,0,0,0,0,0,0,0,0,0,0,0,0,0,0,0,0,0,0,0,0,0,0,0,0,0,0,0,0,0,0,0,0,0,0,0,0,0,0,0,0,0,0,0,0,0,0,0,0,0,0,0,0,0,0,0,0,0,0,0,0,0,0,0,0,0,0,0,0,0,0,0,0,0,0,0,0,0,0,0,0,0,0,0,0,0,0,0,0,0,0,0,0,0,0,0,0,0,0,0,0,0,0,0,0,0],"sum_hessian":[5.9954E4,3.7089E4,2.2865E4,1.5412E4,2.1677E4,1.4022E4,8.843E3,4.905E3,1.0507E4,1.0498E4,1.1179E4,7.453E3,6.569E3,5.813E3,3.03E3,1.405E3,3.5E3,4.693E3,5.814E3,4.876E3,5.622E3,5.379E3,5.8E3,3.747E3,3.706E3,3.496E3,3.073E3,2.777E3,3.036E3,1.839E3,1.191E3,4.64E2,9.41E2,2.41E3,1.09E3,3.56E2,4.337E3,3.9E3,1.914E3,2.994E3,1.882E3,3.625E3,1.997E3,5.33E3,4.9E1,3.236E3,2.564E3,2.16E3,1.587E3,2.236E3,1.47E3,1.956E3,1.54E3,1.799E3,1.274E3,1.311E3,1.466E3,1.622E3,1.414E3,9.41E2,8.98E2,6.8E2,5.11E2,4.62E2,2E0,9.38E2,3E0,1.104E3,1.306E3,5.34E2,5.56E2,8.7E1,2.69E2,3.013E3,1.324E3,6.24E2,3.276E3,1.327E3,5.87E2,5.67E2,2.427E3,1.475E3,4.07E2,1.713E3,1.912E3,7.34E2,1.263E3,3.39E3,1.94E3,2.8E1,2.1E1,8.68E2,2.368E3,1.412E3,1.152E3,6.14E2,1.546E3,1.302E3,2.85E2,4.71E2,1.765E3,9.29E2,5.41E2,4.35E2,1.521E3,9.05E2,6.35E2,4.56E2,1.343E3,1.157E3,1.17E2,2.85E2,1.026E3,6.21E2,8.45E2,8.66E2,7.56E2,7.2E2,6.94E2,4.45E2,4.96E2,3.9E2,5.08E2,2.79E2,2.32E2],"tree_param":{"num_deleted":"0","num_feature":"45","num_nodes":"125","size_leaf_vector":"1"}},{"base_weights":[-2.335767E0,-1.0615608E3,1.8439359E3,-1.8382153E3,-4.010871E2,1.1383507E3,2.9700073E3,-2.3987104E3,-1.468676E3,-7.131622E2,9.4132595E0,7.3213257E2,1.5728376E3,2.5524758E3,3.8053508E3,-2.860601E3,-2.1668997E3,-1.6688354E3,-1.2754624E3,-7.2948987E2,2.5226785E3,1.4923613E2,-2.5125056E2,9.023528E2,5.2027423E2,1.3429457E3,1.8016104E3,2.2659434E3,2.7958718E3,3.5182668E3,4.391948E3,-3.169047E3,-2.6553503E3,-1.522111E3,-2.206242E3,-1.55348E3,-1.8912855E3,-1.1668048E3,-1.5107333E3,-9.102773E2,-5.1661084E2,1.5468094E3,3.4788599E3,2.561726E1,3.848059E2,-4.482917E2,-7.3687706E1,6.953726E2,1.0722076E3,3.71972E2,7.0874976E2,1.4845408E3,1.0780498E3,1.9816202E3,1.6176984E3,2.4209253E3,2.06803E3,3.1794087E3,2.7164124E3,3.3279775E3,3.7040374E3,4.2211002E2,4.8875522E2,-3.494044E2,-3.0497308E2,-2.5434729E2,-2.8600992E2,-1.2573755E2,-1.769939E2,-2.358877E2,-2.0836412E2,-1.0907122E2,-1.6221556E2,-2.108444E2,-1.8160934E2,-8.736108E1,-1.2342033E2,-1.6662968E2,-1.4292415E2,-7.874654E1,-1.1415818E2,-3.570635E1,-7.2496895E1,1.974467E2,8.027864E1,1.7017747E2,3.6184555E2,2.0730703E1,-5.6764116E0,5.0818146E1,3.1737722E1,-5.5766212E1,-3.192251E1,-1.4575467E1,7.285145E0,5.6804653E1,8.428964E1,9.346564E1,1.2575811E2,2.5561432E1,4.4749424E1,6.0452663E1,7.886044E1,1.3588249E2,1.6084972E2,1.1260512E2,7.32011E1,2.3691356E2,1.883306E2,1.4934363E2,1.7697052E2,2.1068016E2,2.4768277E2,1.9375162E2,2.1708597E2,3.8341592E2,2.996246E2,2.5795908E2,2.8902515E2,3.5202527E2,3.1993576E2,4.018847E2,3.621812E2],"categories":[],"categories_nodes":[],"categories_segments":[],"categories_sizes":[],"default_left":[1,0,0,0,1,0,0,0,0,1,0,0,0,0,0,0,0,0,0,1,0,0,0,0,0,0,0,0,0,0,0,0,0,0,0,0,0,0,0,0,0,0,0,0,0,0,0,0,0,0,0,0,0,0,0,0,0,0,0,0,0,0,0,0,0,0,0,0,0,0,0,0,0,0,0,0,0,0,0,0,0,0,0,0,0,0,0,0,0,0,0,0,0,0,0,0,0,0,0,0,0,0,0,0,0,0,0,0,0,0,0,0,0,0,0,0,0,0,0,0,0,0,0],"id":3,"left_children":[1,3,5,7,9,11,13,15,17,19,21,23,25,27,29,31,33,35,37,39,41,43,45,47,49,51,53,55,57,59,61,63,65,67,69,71,73,75,77,79,81,83,85,87,89,91,93,95,97,99,101,103,105,107,109,111,113,115,117,119,121,-1,-1,-1,-1,-1,-1,-1,-1,-1,-1,-1,-1,-1,-1,-1,-1,-1,-1,-1,-1,-1,-1,-1,-1,-1,-1,-1,-1,-1,-1,-1,-1,-1,-1,-1,-1,-1,-1,-1,-1,-1,-1,-1,-1,-1,-1,-1,-1,-1,-1,-1,-1,-1,-1,-1,-1,-1,-1,-1,-1,-1,-1],"loss_changes":[1.17344846E11,1.9557913E10,1.7377165E10,3.6259267E9,2.6399058E9,2.3727247E9,2.9291315E9,7.391232E8,4.0638054E8,6.2036634E8,3.2445014E8,2.502738E8,3.3933005E8,3.8567526E8,4.5708493E8,1.3865165E8,1.1432141E8,1.3011354E8,1.3574554E8,4.4785152E8,4.9672224E7,1.6871645E8,1.0870715E8,1.347479E8,8.638554E7,1.2011264E8,1.045207E8,7.434547E7,8.385741E7,5.4450176E7,5.709824E7,2.5136128E7,2.481664E7,1.548896E7,7.686144E7,1.0692096E8,2.5007616E7,7.172096E7,1.9118848E7,1.7800806E8,1.776576E8,8.27872E6,1.03632E6,5.6904576E7,1.642688E7,2.0614944E7,1.7287812E7,3.22048E7,5.2753664E7,1.5149664E7,1.0875392E7,3.0726144E7,1.8011904E7,5.801984E7,2.7862272E7,2.0155904E7,1.1133952E7,5.027328E7,5.2506624E7,1.20576E7,9.957376E6,0E0,0E0,0E0,0E0,0E0,0E0,0E0,0E0,0E0,0E0,0E0,0E0,0E0,0E0,0E0,0E0,0E0,0E0,0E0,0E0,0E0,0E0,0E0,0E0,0E0,0E0,0E0,0E0,0E0,0E0,0E0,0E0,0E0,0E0,0E0,0E0,0E0,0E0,0E0,0E0,0E0,0E0,0E0,0E0,0E0,0E0,0E0,0E0,0E0,0E0,0E0,0E0,0E0,0E0,0E0,0E0,0E0,0E0,0E0,0E0,0E0,0E0],"parents":[2147483647,0,0,1,1,2,2,3,3,4,4,5,5,6,6,7,7,8,8,9,9,10,10,11,11,12,12,13,13,14,14,15,15,16,16,17,17,18,18,19,19,20,20,21,21,22,22,23,23,24,24,25,25,26,26,27,27,28,28,29,29,30,30,31,31,32,32,33,33,34,34,35,35,36,36,37,37,38,38,39,39,40,40,41,41,42,42,43,43,44,44,45,45,46,46,47,47,48,48,49,49,50,50,51,51,52,52,53,53,54,54,55,55,56,56,57,57,58,58,59,59,60,60],"right_children":[2,4,6,8,10,12,14,16,18,20,22,24,26,28,30,32,34,36,38,40,42,44,46,48,50,52,54,56,58,60,62,64,66,68,70,72,74,76,78,80,82,84,86,88,90,92,94,96,98,100,102,104,106,108,110,112,114,116,118,120,122,-1,-1,-1,-1,-1,-1,-1,-1,-1,-1,-1,-1,-1,-1,-1,-1,-1,-1,-1,-1,-1,-1,-1,-1,-1,-1,-1,-1,-1,-1,-1,-1,-1,-1,-1,-1,-1,-1,-1,-1,-1,-1,-1,-1,-1,-1,-1,-1,-1,-1,-1,-1,-1,-1,-1,-1,-1,-1,-1,-1,-1,-1],"split_conditions":[8.862E3,6.789E3,1.1177E4,5.651E3,7.881E3,9.887E3,1.275E4,4.818E3,6.263E3,9.961333E3,5E-1,6.123234E-17,1.0491E4,1.18E4,1.3816E4,4.323E3,-7.0710677E-1,5E-1,5E-1,7.369E3,1.165E4,8.491E3,8.309E3,9.289E3,9.357E3,5E-1,2.5881904E-1,5E-1,-8.660254E-1,1.32E4,1.4716E4,3.778E3,7.0710677E-1,6.9E1,5.266E3,-7.0710677E-1,0E0,-7.0710677E-1,0E0,5E-1,2.5881904E-1,7.0710677E-1,2.76E1,-7.0710677E-1,-7.0710677E-1,2.59E1,8.66E3,-5E-1,-5E-1,9.046E3,9.574E3,1.0184E4,8.660254E-1,-8.660254E-1,1.0867E4,2.72E1,1.1443E4,-1.8369701E-16,1.2243E4,2.5881904E-1,-8.660254E-1,4.2211002E2,4.8875522E2,-3.494044E2,-3.0497308E2,-2.5434729E2,-2.8600992E2,-1.2573755E2,-1.769939E2,-2.358877E2,-2.0836412E2,-1.0907122E2,-1.6221556E2,-2.108444E2,-1.8160934E2,-8.736108E1,-1.2342033E2,-1.6662968E2,-1.4292415E2,-7.874654E1,-1.1415818E2,-3.570635E1,-7.2496895E1,1.974467E2,8.027864E1,1.7017747E2,3.6184555E2,2.0730703E1,-5.6764116E0,5.0818146E1,3.1737722E1,-5.5766212E1,-3.192251E1,-1.4575467E1,7.285145E0,5.6804653E1,8.428964E1,9.346564E1,1.2575811E2,2.5561432E1,4.4749424E1,6.0452663E1,7.886044E1,1.3588249E2,1.6084972E2,1.1260512E2,7.32011E1,2.3691356E2,1.883306E2,1.4934363E2,1.7697052E2,2.1068016E2,2.4768277E2,1.9375162E2,2.1708597E2,3.8341592E2,2.996246E2,2.5795908E2,2.8902515E2,3.5202527E2,3.1993576E2,4.018847E2,3.621812E2],"split_indices":[0,0,0,0,0,0,0,0,0,12,3,3,0,0,0,0,2,3,3,0,12,0,0,0,0,3,3,3,2,0,0,0,3,19,0,2,2,2,2,3,3,3,23,2,2,18,0,3,3,0,0,0,2,2,0,18,0,3,0,3,2,0,0,0,0,0,0,0,0,0,0,0,0,0,0,0,0,0,0,0,0,0,0,0,0,0,0,0,0,0,0,0,0,0,0,0,0,0,0,0,0,0,0,0,0,0,0,0,0,0,0,0,0,0,0,0,0,0,0,0,0,0,0],"split_type":[0,0,0,0,0,0,0,0,0,0,0,0,0,0,0,0,0,0,0,0,0,0,0,0,0,0,0,0,0,0,0,0,0,0,0,0,0,0,0,0,0,0,0,0,0,0,0,0,0,0,0,0,0,0,0,0,0,0,0,0,0,0,0,0,0,0,0,0,0,0,0,0,0,0,0,0,0,0,0,0,0,0,0,0,0,0,0,0,0,0,0,0,0,0,0,0,0,0,0,0,0,0,0,0,0,0,0,0,0,0,0,0,0,0,0,0,0,0,0,0,0,0,0],"sum_hessian":[6.0002E4,3.8128E4,2.1874E4,1.7522E4,2.0606E4,1.3449E4,8.425E3,6.96E3,1.0562E4,1.1706E4,8.9E3,6.952E3,6.497E3,5.62E3,2.805E3,2.322E3,4.638E3,5.184E3,5.378E3,1.1648E4,5.8E1,5.793E3,3.107E3,3.853E3,3.099E3,3.244E3,3.253E3,2.586E3,3.034E3,1.888E3,9.17E2,9.22E2,1.4E3,2.69E2,4.369E3,3.419E3,1.765E3,3.683E3,1.695E3,6.297E3,5.351E3,3E1,2.8E1,3.8E3,1.993E3,1.472E3,1.635E3,1.739E3,2.114E3,1.736E3,1.363E3,2.111E3,1.133E3,1.639E3,1.614E3,1.444E3,1.142E3,5.14E2,2.52E3,9.42E2,9.46E2,6.89E2,2.28E2,2.4E2,6.82E2,9.14E2,4.86E2,1.33E2,1.36E2,1.938E3,2.431E3,4.44E2,2.975E3,4.47E2,1.318E3,6.91E2,2.992E3,5.76E2,1.119E3,4.116E3,2.181E3,3.032E3,2.319E3,1.8E1,1.2E1,3E0,2.5E1,1.185E3,2.615E3,7.02E2,1.291E3,7.95E2,6.77E2,1.096E3,5.39E2,9.36E2,8.03E2,1.217E3,8.97E2,6.85E2,1.051E3,5.95E2,7.68E2,1.054E3,1.057E3,9.93E2,1.4E2,3.27E2,1.312E3,8.94E2,7.2E2,2.24E2,1.22E3,5.12E2,6.3E2,1.08E2,4.06E2,1.419E3,1.101E3,3.67E2,5.75E2,1.86E2,7.6E2],"tree_param":{"num_deleted":"0","num_feature":"45","num_nodes":"123","size_leaf_vector":"1"}},{"base_weights":[5.7038803E0,-9.6465186E2,1.6457139E3,-1.7225186E3,-4.16877E2,9.731346E2,2.6128582E3,-2.294025E3,-1.4520814E3,-7.648016E2,-7.942968E1,6.414664E2,1.3497281E3,2.199808E3,3.3509727E3,-2.6808665E3,-2.1120684E3,-1.677645E3,-1.2781088E3,-9.309124E2,-5.99869E2,-2.7896014E2,1.0389726E2,7.866295E2,4.3532965E2,1.1665298E3,1.5318962E3,1.9572844E3,2.423793E3,3.0462295E3,3.8781108E3,-2.9088137E3,-2.5081265E3,-2.0116031E3,-2.3325857E3,-1.1810947E3,-1.7221738E3,-1.1782529E3,-1.4861646E3,-8.2156573E2,-1.1467849E3,-4.6336206E2,-7.844268E2,-3.0472977E2,2.8203188E3,2.5292615E2,-8.545041E1,5.816731E2,9.1608466E2,2.924356E2,5.923114E2,1.3240599E3,9.620331E2,1.706266E3,1.3711792E3,1.8172449E3,2.1651199E3,2.5932373E3,2.2961956E3,2.902456E3,3.23452E3,3.6389944E3,4.184392E3,-3.1297202E2,-2.7848685E2,-2.5145537E2,3.1607227E1,-1.4541501E2,-2.0491643E2,-2.4686124E2,-2.2351183E2,-1.0572796E2,-1.6837198E2,-1.645877E2,-1.8965242E2,-8.7587265E1,-1.2352703E2,-1.5380803E2,-1.2472025E2,-5.7733864E1,-8.8724075E1,-1.2753385E2,-1.0626949E2,-1.9512785E1,-5.4526882E1,-8.215174E1,-5.4808918E1,-2.3693706E2,-2.841435E1,1.6887105E2,3.4702682E2,4.6706635E1,1.7198196E1,-1.8586962E1,4.037033E0,3.802801E1,6.416494E1,1.17006645E2,8.4868675E1,4.3564342E1,2.1672369E1,8.310107E1,5.5896015E1,1.6085136E2,1.2450359E2,1.2788417E2,9.2847E1,2.0833983E2,1.6115775E2,1.254975E2,1.471583E2,1.737929E2,1.9338274E2,2.639868E2,2.0496443E2,2.935924E2,2.4916966E2,2.130155E2,2.4293333E2,3.2034402E2,2.822813E2,3.529776E2,3.160826E2,3.8061774E2,3.4898932E2,3.939764E2,4.3699118E2],"categories":[],"categories_nodes":[],"categories_segments":[],"categories_sizes":[],"default_left":[1,0,0,0,0,0,0,0,0,0,1,0,0,0,0,0,0,0,0,0,0,1,0,0,0,0,0,0,0,0,0,0,0,0,0,0,0,0,0,0,0,0,0,0,0,0,0,0,0,1,0,0,0,0,0,0,0,0,0,0,0,0,0,0,0,0,0,0,0,0,0,0,0,0,0,0,0,0,0,0,0,0,0,0,0,0,0,0,0,0,0,0,0,0,0,0,0,0,0,0,0,0,0,0,0,0,0,0,0,0,0,0,0,0,0,0,0,0,0,0,0,0,0,0,0,0,0],"id":4,"left_children":[1,3,5,7,9,11,13,15,17,19,21,23,25,27,29,31,33,35,37,39,41,43,45,47,49,51,53,55,57,59,61,63,65,67,69,71,73,75,77,79,81,83,85,87,89,91,93,95,97,99,101,103,105,107,109,111,113,115,117,119,121,123,125,-1,-1,-1,-1,-1,-1,-1,-1,-1,-1,-1,-1,-1,-1,-1,-1,-1,-1,-1,-1,-1,-1,-1,-1,-1,-1,-1,-1,-1,-1,-1,-1,-1,-1,-1,-1,-1,-1,-1,-1,-1,-1,-1,-1,-1,-1,-1,-1,-1,-1,-1,-1,-1,-1,-1,-1,-1,-1,-1,-1,-1,-1,-1,-1],"loss_changes":[9.555679E10,1.566045E10,1.4516851E10,2.442834E9,2.5710182E9,1.6437484E9,2.783785E9,3.5205325E8,4.1955123E8,2.9483674E8,4.0671773E8,2.0921165E8,2.0395622E8,3.1428403E8,5.155758E8,5.657088E7,7.198413E7,1.0135552E8,1.2437811E8,1.2581632E8,1.3600858E8,4.2607245E8,1.635465E8,1.0846336E8,6.478912E7,9.788211E7,8.419942E7,7.828787E7,5.996544E7,4.705485E7,7.258522E7,1.0258432E7,1.7675776E7,4.695859E7,8.761344E6,2.236608E7,5.393203E7,6.97257E7,2.245888E7,5.6717056E7,1.8135296E7,6.83088E7,1.971136E7,2.2378618E8,2.6501184E7,5.613192E7,3.2264194E7,1.8997568E7,4.2075264E7,1.636456E7,1.05136E7,3.7020416E7,1.3092864E7,4.9386496E7,1.6961024E7,1.230336E7,5.664717E7,3.7991424E7,3.3466368E7,1.9530752E7,8.295424E6,3.692544E6,6.337536E6,0E0,0E0,0E0,0E0,0E0,0E0,0E0,0E0,0E0,0E0,0E0,0E0,0E0,0E0,0E0,0E0,0E0,0E0,0E0,0E0,0E0,0E0,0E0,0E0,0E0,0E0,0E0,0E0,0E0,0E0,0E0,0E0,0E0,0E0,0E0,0E0,0E0,0E0,0E0,0E0,0E0,0E0,0E0,0E0,0E0,0E0,0E0,0E0,0E0,0E0,0E0,0E0,0E0,0E0,0E0,0E0,0E0,0E0,0E0,0E0,0E0,0E0,0E0,0E0],"parents":[2147483647,0,0,1,1,2,2,3,3,4,4,5,5,6,6,7,7,8,8,9,9,10,10,11,11,12,12,13,13,14,14,15,15,16,16,17,17,18,18,19,19,20,20,21,21,22,22,23,23,24,24,25,25,26,26,27,27,28,28,29,29,30,30,31,31,32,32,33,33,34,34,35,35,36,36,37,37,38,38,39,39,40,40,41,41,42,42,43,43,44,44,45,45,46,46,47,47,48,48,49,49,50,50,51,51,52,52,53,53,54,54,55,55,56,56,57,57,58,58,59,59,60,60,61,61,62,62],"right_children":[2,4,6,8,10,12,14,16,18,20,22,24,26,28,30,32,34,36,38,40,42,44,46,48,50,52,54,56,58,60,62,64,66,68,70,72,74,76,78,80,82,84,86,88,90,92,94,96,98,100,102,104,106,108,110,112,114,116,118,120,122,124,126,-1,-1,-1,-1,-1,-1,-1,-1,-1,-1,-1,-1,-1,-1,-1,-1,-1,-1,-1,-1,-1,-1,-1,-1,-1,-1,-1,-1,-1,-1,-1,-1,-1,-1,-1,-1,-1,-1,-1,-1,-1,-1,-1,-1,-1,-1,-1,-1,-1,-1,-1,-1,-1,-1,-1,-1,-1,-1,-1,-1,-1,-1,-1,-1],"split_conditions":[8.834E3,6.633E3,1.102E4,5.382E3,7.652E3,9.847E3,1.2572E4,4.604E3,6.004E3,7.146E3,8.168E3,2.5881904E-1,1.0398E4,1.1672E4,1.365E4,4.183E3,7.0710677E-1,-7.0710677E-1,5E-1,5E-1,2.5881904E-1,1.1166167E4,2.5881904E-1,9.197E3,9.289E3,2.5881904E-1,6.123234E-17,2.0125E2,6.123234E-17,1.3096E4,1.43E4,3.778E3,5.9786665E3,-7.0710677E-1,4.987E3,4.449357E2,7.0710677E-1,-7.0710677E-1,7.5984165E3,-7.0710677E-1,0E0,-7.0710677E-1,8.355583E3,6.0833335E3,1.2437E4,-7.0710677E-1,8.519E3,8.449667E3,-8.660254E-1,9.199E3,9.166E3,-8.660254E-1,9.36E3,-8.660254E-1,1.0677E4,1.1387E4,-8.660254E-1,-8.660254E-1,1.2033E4,-8.660254E-1,-8.660254E-1,5E-1,3.07E1,-3.1297202E2,-2.7848685E2,-2.5145537E2,3.1607227E1,-1.4541501E2,-2.0491643E2,-2.4686124E2,-2.2351183E2,-1.0572796E2,-1.6837198E2,-1.645877E2,-1.8965242E2,-8.7587265E1,-1.2352703E2,-1.5380803E2,-1.2472025E2,-5.7733864E1,-8.8724075E1,-1.2753385E2,-1.0626949E2,-1.9512785E1,-5.4526882E1,-8.215174E1,-5.4808918E1,-2.3693706E2,-2.841435E1,1.6887105E2,3.4702682E2,4.6706635E1,1.7198196E1,-1.8586962E1,4.037033E0,3.802801E1,6.416494E1,1.17006645E2,8.4868675E1,4.3564342E1,2.1672369E1,8.310107E1,5.5896015E1,1.6085136E2,1.2450359E2,1.2788417E2,9.2847E1,2.0833983E2,1.6115775E2,1.254975E2,1.471583E2,1.737929E2,1.9338274E2,2.639868E2,2.0496443E2,2.935924E2,2.4916966E2,2.130155E2,2.4293333E2,3.2034402E2,2.822813E2,3.529776E2,3.160826E2,3.8061774E2,3.4898932E2,3.939764E2,4.3699118E2],"split_indices":[0,0,0,0,0,0,0,0,0,0,0,3,0,0,0,0,3,2,3,3,3,14,3,0,0,3,3,26,3,0,0,0,12,2,0,15,3,2,16,2,2,2,16,12,12,2,0,16,2,9,9,2,9,2,0,0,2,2,0,2,2,3,23,0,0,0,0,0,0,0,0,0,0,0,0,0,0,0,0,0,0,0,0,0,0,0,0,0,0,0,0,0,0,0,0,0,0,0,0,0,0,0,0,0,0,0,0,0,0,0,0,0,0,0,0,0,0,0,0,0,0,0,0,0,0,0,0],"split_type":[0,0,0,0,0,0,0,0,0,0,0,0,0,0,0,0,0,0,0,0,0,0,0,0,0,0,0,0,0,0,0,0,0,0,0,0,0,0,0,0,0,0,0,0,0,0,0,0,0,0,0,0,0,0,0,0,0,0,0,0,0,0,0,0,0,0,0,0,0,0,0,0,0,0,0,0,0,0,0,0,0,0,0,0,0,0,0,0,0,0,0,0,0,0,0,0,0,0,0,0,0,0,0,0,0,0,0,0,0,0,0,0,0,0,0,0,0,0,0,0,0,0,0,0,0,0,0],"sum_hessian":[6.0044E4,3.7724E4,2.232E4,1.5826E4,2.1898E4,1.3166E4,9.154E3,5.081E3,1.0745E4,1.0781E4,1.1117E4,7.002E3,6.164E3,5.872E3,3.282E3,1.621E3,3.46E3,4.675E3,6.07E3,5.369E3,5.412E3,5.323E3,5.794E3,4.107E3,2.895E3,3.077E3,3.087E3,2.824E3,3.048E3,2.084E3,1.198E3,6.92E2,9.29E2,2.384E3,1.076E3,3.87E2,4.288E3,4.106E3,1.964E3,3.567E3,1.802E3,3.113E3,2.299E3,5.28E3,4.3E1,3.242E3,2.552E3,1.592E3,2.515E3,1.517E3,1.378E3,1.735E3,1.342E3,1.476E3,1.611E3,1.693E3,1.131E3,1.301E3,1.747E3,1.191E3,8.93E2,6.8E2,5.18E2,2.4E2,4.52E2,9.27E2,2E0,1.53E2,2.231E3,4.39E2,6.37E2,3.13E2,7.4E1,2.99E3,1.298E3,6.54E2,3.452E3,1.609E3,3.55E2,7.58E2,2.809E3,7.07E2,1.095E3,7.29E2,2.384E3,1.985E3,3.14E2,5.1E1,5.229E3,1.7E1,2.6E1,8.88E2,2.354E3,1.419E3,1.133E3,3.67E2,1.225E3,5.24E2,1.991E3,5.23E2,9.94E2,1.66E2,1.212E3,3.73E2,1.362E3,1.25E2,1.217E3,2.92E2,1.184E3,7.53E2,8.58E2,1.017E3,6.76E2,2.17E2,9.14E2,2.91E2,1.01E3,7.85E2,9.62E2,2.41E2,9.5E2,1.69E2,7.24E2,3.09E2,3.71E2,2.33E2,2.85E2],"tree_param":{"num_deleted":"0","num_feature":"45","num_nodes":"127","size_leaf_vector":"1"}},{"base_weights":[1.2935065E0,-8.2619196E2,1.5201453E3,-1.4530253E3,-3.051633E2,9.679929E2,2.3859763E3,-1.9237832E3,-1.1871261E3,-6.208776E2,-2.3908316E1,6.298663E2,1.2717683E3,2.0686663E3,3.071979E3,-2.3443264E3,-1.775588E3,-1.0373635E3,-1.5424684E3,-3.8774692E2,-8.5115436E2,1.158176E2,-3.3689554E2,8.264519E2,2.500197E2,1.9186008E3,1.1534628E3,2.7999395E3,1.9500461E3,2.836762E3,3.4811128E3,-2.225424E3,-2.657608E3,-1.6593872E3,-2.1594565E3,-6.8102637E2,-1.1231143E3,-1.5498317E3,3.687653E2,-5.4775653E2,-1.1922121E2,-1.0350231E3,-6.9136786E2,-8.0638855E1,3.5556128E2,-5.4689557E2,-1.626769E2,1.2178196E3,6.9880646E2,1.4309174E2,3.9342792E2,1.1957867E3,2.1738142E3,1.3865125E3,9.5919684E2,2.3585818E3,2.9760525E3,1.7378412E3,2.1630227E3,3.5491675E3,2.7163713E3,3.2251604E3,3.7411467E3,-1.3894302E2,-2.2603206E2,-2.829451E2,-2.519294E2,-1.1272931E2,-1.717693E2,-2.0489949E2,-2.3256517E2,-8.262112E1,-2.9178953E1,-1.293499E2,-9.639553E1,-1.4271288E2,-1.7772969E2,-2.066011E1,-6.289343E1,5.980307E1,-2.0022682E1,-9.0569176E1,-1.2053241E2,-5.635911E1,-8.489792E1,1.1959479E1,-2.0801546E1,5.790918E1,2.4878414E1,-6.931332E1,-3.713412E1,-3.838107E1,2.6619586E-1,6.700032E1,1.62895E2,7.666036E1,2.9413792E1,9.1528696E-1,2.936086E1,4.5445873E1,-1.0064225E1,1.5962204E2,1.0364376E2,1.8820602E2,2.3583545E2,1.0383822E2,1.5730437E2,7.4411804E1,1.1594274E2,1.7566766E2,2.4882874E2,2.9840976E2,4.9298733E1,1.5356126E2,1.9334337E2,1.9900163E2,2.3300359E2,3.068441E2,3.7403427E2,2.5756216E2,2.8896213E2,3.0675525E2,3.393652E2,4.215166E2,3.6158075E2],"categories":[],"categories_nodes":[],"categories_segments":[],"categories_sizes":[],"default_left":[1,1,0,0,1,0,0,0,0,0,0,0,0,0,0,0,0,0,1,0,0,0,0,0,0,0,0,0,0,0,0,0,1,0,0,0,1,1,0,0,0,0,1,0,0,0,0,0,0,0,0,0,0,0,0,0,0,0,0,0,0,1,0,0,0,0,0,0,0,0,0,0,0,0,0,0,0,0,0,0,0,0,0,0,0,0,0,0,0,0,0,0,0,0,0,0,0,0,0,0,0,0,0,0,0,0,0,0,0,0,0,0,0,0,0,0,0,0,0,0,0,0,0,0,0],"id":5,"left_children":[1,3,5,7,9,11,13,15,17,19,21,23,25,27,29,31,33,35,37,39,41,43,45,47,49,51,53,55,57,59,61,63,65,67,69,71,73,75,-1,77,79,81,83,85,87,89,91,93,95,97,99,101,103,105,107,109,111,113,115,117,119,121,123,-1,-1,-1,-1,-1,-1,-1,-1,-1,-1,-1,-1,-1,-1,-1,-1,-1,-1,-1,-1,-1,-1,-1,-1,-1,-1,-1,-1,-1,-1,-1,-1,-1,-1,-1,-1,-1,-1,-1,-1,-1,-1,-1,-1,-1,-1,-1,-1,-1,-1,-1,-1,-1,-1,-1,-1,-1,-1,-1,-1,-1,-1],"loss_changes":[7.5565515E10,1.2710756E10,1.0134704E10,2.2090424E9,1.8873491E9,1.3292503E9,1.7907753E9,3.9314432E8,5.993257E8,5.3726746E8,4.9167894E8,4.5753498E8,5.1968E8,4.8446874E8,2.4120115E8,5.584589E7,2.0686643E8,2.420649E8,1.3457357E8,2.1382298E8,1.4726989E8,3.661307E8,1.2686419E8,2.0092262E8,3.202316E7,1.9164928E8,2.5980877E8,5.4075904E7,2.1602304E8,1.3290394E8,5.1030016E7,3.2100864E7,3.591168E6,1.1055616E8,1.5300608E7,8.701235E7,1.7241856E8,9.074125E7,0E0,8.624838E7,1.081884E8,5.0447616E7,5.385677E7,1.090081E8,8.341763E7,4.0125696E7,6.939571E7,2.2233062E8,8.339776E7,2.4189382E7,2.6972816E7,1.602064E7,3.73952E7,1.6850176E8,1.3474995E8,1.3507072E7,9.675776E6,9.358234E7,6.537421E7,1.0304E7,2.733056E7,2.469376E6,1.2326912E7,0E0,0E0,0E0,0E0,0E0,0E0,0E0,0E0,0E0,0E0,0E0,0E0,0E0,0E0,0E0,0E0,0E0,0E0,0E0,0E0,0E0,0E0,0E0,0E0,0E0,0E0,0E0,0E0,0E0,0E0,0E0,0E0,0E0,0E0,0E0,0E0,0E0,0E0,0E0,0E0,0E0,0E0,0E0,0E0,0E0,0E0,0E0,0E0,0E0,0E0,0E0,0E0,0E0,0E0,0E0,0E0,0E0,0E0,0E0,0E0,0E0,0E0],"parents":[2147483647,0,0,1,1,2,2,3,3,4,4,5,5,6,6,7,7,8,8,9,9,10,10,11,11,12,12,13,13,14,14,15,15,16,16,17,17,18,18,19,19,20,20,21,21,22,22,23,23,24,24,25,25,26,26,27,27,28,28,29,29,30,30,31,31,32,32,33,33,34,34,35,35,36,36,37,37,39,39,40,40,41,41,42,42,43,43,44,44,45,45,46,46,47,47,48,48,49,49,50,50,51,51,52,52,53,53,54,54,55,55,56,56,57,57,58,58,59,59,60,60,61,61,62,62],"right_children":[2,4,6,8,10,12,14,16,18,20,22,24,26,28,30,32,34,36,38,40,42,44,46,48,50,52,54,56,58,60,62,64,66,68,70,72,74,76,-1,78,80,82,84,86,88,90,92,94,96,98,100,102,104,106,108,110,112,114,116,118,120,122,124,-1,-1,-1,-1,-1,-1,-1,-1,-1,-1,-1,-1,-1,-1,-1,-1,-1,-1,-1,-1,-1,-1,-1,-1,-1,-1,-1,-1,-1,-1,-1,-1,-1,-1,-1,-1,-1,-1,-1,-1,-1,-1,-1,-1,-1,-1,-1,-1,-1,-1,-1,-1,-1,-1,-1,-1,-1,-1,-1,-1,-1,-1],"split_conditions":[8.973333E3,6.801E3,1.1208333E4,5.589E3,7.657E3,9.875333E3,1.2816667E4,4.637E3,5E-1,2.5881904E-1,5E-1,5E-1,-8.660254E-1,-8.660254E-1,1.3794333E4,7.0710677E-1,7.0710677E-1,-7.0710677E-1,1.225E4,7.4546665E3,7.3853335E3,8.226333E3,8.297333E3,-8.660254E-1,2.6E1,2.68E1,-1.8369701E-16,1.1435E4,1.1886333E4,-8.660254E-1,3.02E1,-7.0710677E-1,4.183E3,-7.0710677E-1,3.270632E2,6.2981157E10,6.2123335E3,3.875272E2,3.687653E2,-7.0710677E-1,-8.660254E-1,3.3467346E2,3.5672025E2,-7.0710677E-1,-7.0710677E-1,3.1E1,2.87E1,2.66E1,-1.8369701E-16,9.393333E3,8.660254E-1,5E-1,1.0279833E4,-2.5881904E-1,1.0524E4,3.04E1,8.5E0,2.78E1,2.8E1,1.2747333E4,2.94E1,1.43E4,-8.660254E-1,-1.3894302E2,-2.2603206E2,-2.829451E2,-2.519294E2,-1.1272931E2,-1.717693E2,-2.0489949E2,-2.3256517E2,-8.262112E1,-2.9178953E1,-1.293499E2,-9.639553E1,-1.4271288E2,-1.7772969E2,-2.066011E1,-6.289343E1,5.980307E1,-2.0022682E1,-9.0569176E1,-1.2053241E2,-5.635911E1,-8.489792E1,1.1959479E1,-2.0801546E1,5.790918E1,2.4878414E1,-6.931332E1,-3.713412E1,-3.838107E1,2.6619586E-1,6.700032E1,1.62895E2,7.666036E1,2.9413792E1,9.1528696E-1,2.936086E1,4.5445873E1,-1.0064225E1,1.5962204E2,1.0364376E2,1.8820602E2,2.3583545E2,1.0383822E2,1.5730437E2,7.4411804E1,1.1594274E2,1.7566766E2,2.4882874E2,2.9840976E2,4.9298733E1,1.5356126E2,1.9334337E2,1.9900163E2,2.3300359E2,3.068441E2,3.7403427E2,2.5756216E2,2.8896213E2,3.0675525E2,3.393652E2,4.215166E2,3.6158075E2],"split_indices":[12,12,12,12,10,12,12,12,3,3,3,3,2,2,12,3,3,2,11,12,12,12,12,2,18,18,3,14,12,2,23,2,8,2,13,27,12,13,0,2,2,13,13,2,2,20,20,18,3,12,2,7,14,2,12,20,21,18,18,14,23,8,2,0,0,0,0,0,0,0,0,0,0,0,0,0,0,0,0,0,0,0,0,0,0,0,0,0,0,0,0,0,0,0,0,0,0,0,0,0,0,0,0,0,0,0,0,0,0,0,0,0,0,0,0,0,0,0,0,0,0,0,0,0,0],"split_type":[0,0,0,0,0,0,0,0,0,0,0,0,0,0,0,0,0,0,0,0,0,0,0,0,0,0,0,0,0,0,0,0,0,0,0,0,0,0,0,0,0,0,0,0,0,0,0,0,0,0,0,0,0,0,0,0,0,0,0,0,0,0,0,0,0,0,0,0,0,0,0,0,0,0,0,0,0,0,0,0,0,0,0,0,0,0,0,0,0,0,0,0,0,0,0,0,0,0,0,0,0,0,0,0,0,0,0,0,0,0,0,0,0,0,0,0,0,0,0,0,0,0,0,0,0],"sum_hessian":[6.0122E4,3.8919E4,2.1203E4,1.7665E4,2.1254E4,1.2948E4,8.255E3,6.374E3,1.1291E4,1.0013E4,1.1241E4,6.129E3,6.819E3,5.647E3,2.608E3,1.657E3,4.717E3,7.946E3,3.345E3,4.977E3,5.036E3,7.772E3,3.469E3,4.038E3,2.091E3,1.052E3,5.767E3,7.85E2,4.862E3,1.661E3,9.47E2,1.207E3,4.5E2,3.625E3,1.092E3,1.543E3,6.403E3,3.341E3,4E0,3.118E3,1.859E3,2.339E3,2.697E3,4.272E3,3.5E3,1.572E3,1.897E3,9.91E2,3.047E3,1.199E3,8.92E2,2.76E2,7.76E2,2.619E3,3.148E3,2.28E2,5.57E2,2.44E3,2.422E3,2.36E2,1.425E3,4.84E2,4.63E2,5E1,1.157E3,1.92E2,2.58E2,3.6E2,3.265E3,6.64E2,4.28E2,1.123E3,4.2E2,3.089E3,3.314E3,2.175E3,1.166E3,6E2,2.518E3,1.88E2,1.671E3,1.333E3,1.006E3,1.492E3,1.205E3,1.661E3,2.611E3,1.13E3,2.37E3,8.56E2,7.16E2,8.11E2,1.086E3,4.26E2,5.65E2,2.609E3,4.38E2,6.35E2,5.64E2,7.94E2,9.8E1,7.6E1,2E2,3.05E2,4.71E2,9.16E2,1.703E3,1.52E3,1.628E3,4.3E1,1.85E2,5.55E2,2E0,1.204E3,1.236E3,1.196E3,1.226E3,7.2E1,1.64E2,7.95E2,6.3E2,2.6E2,2.24E2,9E1,3.73E2],"tree_param":{"num_deleted":"0","num_feature":"45","num_nodes":"125","size_leaf_vector":"1"}},{"base_weights":[6.7316663E-1,-8.1785126E2,1.2825127E3,-1.4494034E3,-4.0230438E2,7.3094366E2,2.105148E3,-1.8972399E3,-1.2361113E3,-6.854954E2,-1.2768351E2,4.3353134E2,1.0292723E3,1.7696395E3,2.7223335E3,-2.320308E3,-1.7916716E3,-1.4229102E3,-1.1078092E3,-8.312291E2,-5.652307E2,-1.3868474E2,2.0681636E3,5.483559E2,2.7094452E2,8.592996E2,1.1982236E3,1.5878645E3,1.9819762E3,2.4800464E3,3.1365254E3,-2.5746008E2,-2.2377615E3,-1.9361227E3,-1.6792177E3,-9.781621E2,-1.4565648E3,-1.0185799E3,-1.2404584E3,-7.50738E2,-1.00858685E3,-4.537896E2,-7.1527826E2,-3.1339453E2,9.853131E0,1.33747E3,2.501628E3,3.170815E2,6.1484216E2,1.3693463E2,3.7046542E2,7.1693335E2,1.0244342E3,1.3231062E3,1.060442E3,1.7152126E3,1.4184447E3,2.120469E3,1.8732771E3,2.65769E3,2.379673E3,3.0179138E3,3.5990414E2,-2.241054E2,5.1630373E0,-1.8529425E2,-2.0912337E2,-1.59924E2,-1.8487996E2,-7.099567E1,-1.214814E2,-1.3860336E2,-1.6180693E2,-6.9564445E1,-1.0768725E2,-1.3394067E2,-1.0861831E2,-8.586611E1,-6.414093E1,-1.1016488E2,-9.1408676E1,-5.7245556E1,-3.1255564E1,-7.49193E1,-4.890357E1,-2.03127E2,-2.957483E1,1.3709487E1,-1.5169017E1,1.70181E2,5.816289E1,9.252197E1,2.5712402E2,3.834158E1,1.3275876E1,1.4411583E2,5.2641224E1,2.8874329E1,6.952063E0,4.7694984E1,3.2624157E1,9.514482E1,6.668445E1,1.6446617E2,9.0183624E1,1.6209154E2,1.25177605E2,9.5780396E1,1.16528625E2,1.8873004E2,1.6468166E2,1.4502095E2,1.0396136E2,2.3855862E2,2.0430165E2,1.9940288E2,1.7457544E2,2.9105725E2,2.5327403E2,2.214262E2,2.506002E2,2.886266E2,3.1495825E2],"categories":[],"categories_nodes":[],"categories_segments":[],"categories_sizes":[],"default_left":[1,0,0,0,0,0,0,0,0,0,1,0,0,0,0,0,0,0,0,0,0,1,0,0,0,0,0,0,0,0,0,0,0,0,0,0,0,0,0,0,0,0,0,0,0,0,0,0,0,0,0,0,0,0,0,0,0,0,0,0,0,0,0,0,0,0,0,0,0,0,0,0,0,0,0,0,0,0,0,0,0,0,0,0,0,0,0,0,0,0,0,0,0,0,0,0,0,0,0,0,0,0,0,0,0,0,0,0,0,0,0,0,0,0,0,0,0,0,0,0,0,0,0],"id":6,"left_children":[1,3,5,7,9,11,13,15,17,19,21,23,25,27,29,31,33,35,37,39,41,43,45,47,49,51,53,55,57,59,61,-1,63,65,67,69,71,73,75,77,79,81,83,85,87,89,91,93,95,97,99,101,103,105,107,109,111,113,115,117,119,121,-1,-1,-1,-1,-1,-1,-1,-1,-1,-1,-1,-1,-1,-1,-1,-1,-1,-1,-1,-1,-1,-1,-1,-1,-1,-1,-1,-1,-1,-1,-1,-1,-1,-1,-1,-1,-1,-1,-1,-1,-1,-1,-1,-1,-1,-1,-1,-1,-1,-1,-1,-1,-1,-1,-1,-1,-1,-1,-1,-1,-1],"loss_changes":[6.298974E10,9.614938E9,1.0614166E10,1.3865165E9,1.7186332E9,1.2423475E9,1.9395789E9,2.0526592E8,2.345431E8,1.9022029E8,2.7135277E8,1.3083277E8,1.9976038E8,2.3175782E8,3.2388915E8,1.3822976E7,5.777715E7,5.8566656E7,6.791885E7,6.943667E7,9.940224E7,2.8977216E8,1.4391008E7,6.301811E7,3.870597E7,8.12905E7,5.888819E7,6.841958E7,3.8224896E7,3.0941184E7,5.5847936E7,0E0,5.482752E6,1.7258496E7,2.5796608E7,1.7226848E7,4.0177664E7,6.5137664E7,3.4357504E7,3.940083E7,1.2465792E7,5.722291E7,1.9122816E7,1.549406E8,1.2409106E8,5.343988E6,1.352112E6,1.1197856E7,2.3248435E8,1.2670122E7,7.69456E6,2.1413888E7,1.211671E8,3.6930304E7,1.6865536E7,1.8902528E7,1.5519488E7,2.0279808E7,2.0832768E7,1.619968E7,2.2556672E7,7.793664E6,0E0,0E0,0E0,0E0,0E0,0E0,0E0,0E0,0E0,0E0,0E0,0E0,0E0,0E0,0E0,0E0,0E0,0E0,0E0,0E0,0E0,0E0,0E0,0E0,0E0,0E0,0E0,0E0,0E0,0E0,0E0,0E0,0E0,0E0,0E0,0E0,0E0,0E0,0E0,0E0,0E0,0E0,0E0,0E0,0E0,0E0,0E0,0E0,0E0,0E0,0E0,0E0,0E0,0E0,0E0,0E0,0E0,0E0,0E0,0E0,0E0],"parents":[2147483647,0,0,1,1,2,2,3,3,4,4,5,5,6,6,7,7,8,8,9,9,10,10,11,11,12,12,13,13,14,14,15,15,16,16,17,17,18,18,19,19,20,20,21,21,22,22,23,23,24,24,25,25,26,26,27,27,28,28,29,29,30,30,32,32,33,33,34,34,35,35,36,36,37,37,38,38,39,39,40,40,41,41,42,42,43,43,44,44,45,45,46,46,47,47,48,48,49,49,50,50,51,51,52,52,53,53,54,54,55,55,56,56,57,57,58,58,59,59,60,60,61,61],"right_children":[2,4,6,8,10,12,14,16,18,20,22,24,26,28,30,32,34,36,38,40,42,44,46,48,50,52,54,56,58,60,62,-1,64,66,68,70,72,74,76,78,80,82,84,86,88,90,92,94,96,98,100,102,104,106,108,110,112,114,116,118,120,122,-1,-1,-1,-1,-1,-1,-1,-1,-1,-1,-1,-1,-1,-1,-1,-1,-1,-1,-1,-1,-1,-1,-1,-1,-1,-1,-1,-1,-1,-1,-1,-1,-1,-1,-1,-1,-1,-1,-1,-1,-1,-1,-1,-1,-1,-1,-1,-1,-1,-1,-1,-1,-1,-1,-1,-1,-1,-1,-1,-1,-1],"split_conditions":[8.69E3,6.5E3,1.0963E4,5.308E3,7.546E3,9.649E3,1.2572E4,4.323E3,5.864E3,6.969E3,1.0437667E4,2.5881904E-1,1.0269E4,1.1735E4,1.365E4,3.778E3,4.881E3,-7.0710677E-1,2.5881904E-1,5E-1,2.5881904E-1,8.017E3,1.1587333E4,8.449667E3,9.046E3,2.76E1,2.5881904E-1,5E-1,2.5881904E-1,2.5881904E-1,1.4716E4,-2.5746008E2,5.3063335E3,7.0710677E-1,7.0710677E-1,6.5E1,7.0710677E-1,-7.0710677E-1,7.0580835E3,-5E-1,1.2246469E-16,-5E-1,8.33275E3,6.0833335E3,2.5881904E-1,7.0710677E-1,9.551E3,7.7522565E2,-8.660254E-1,8.988E3,9.429E3,-1.8369701E-16,-8.660254E-1,-8.660254E-1,1.063E4,-8.660254E-1,8.660254E-1,-8.660254E-1,-2.5881904E-1,-8.660254E-1,1.2976E4,1.405E4,3.5990414E2,-2.241054E2,5.1630373E0,-1.8529425E2,-2.0912337E2,-1.59924E2,-1.8487996E2,-7.099567E1,-1.214814E2,-1.3860336E2,-1.6180693E2,-6.9564445E1,-1.0768725E2,-1.3394067E2,-1.0861831E2,-8.586611E1,-6.414093E1,-1.1016488E2,-9.1408676E1,-5.7245556E1,-3.1255564E1,-7.49193E1,-4.890357E1,-2.03127E2,-2.957483E1,1.3709487E1,-1.5169017E1,1.70181E2,5.816289E1,9.252197E1,2.5712402E2,3.834158E1,1.3275876E1,1.4411583E2,5.2641224E1,2.8874329E1,6.952063E0,4.7694984E1,3.2624157E1,9.514482E1,6.668445E1,1.6446617E2,9.0183624E1,1.6209154E2,1.25177605E2,9.5780396E1,1.16528625E2,1.8873004E2,1.6468166E2,1.4502095E2,1.0396136E2,2.3855862E2,2.0430165E2,1.9940288E2,1.7457544E2,2.9105725E2,2.5327403E2,2.214262E2,2.506002E2,2.886266E2,3.1495825E2],"split_indices":[0,0,0,0,0,0,0,0,0,0,12,3,0,0,0,0,0,2,3,3,3,0,12,16,0,18,3,3,3,3,0,0,12,3,3,19,3,2,16,3,2,3,16,12,3,3,11,15,2,9,9,3,2,2,0,2,2,2,2,2,0,0,0,0,0,0,0,0,0,0,0,0,0,0,0,0,0,0,0,0,0,0,0,0,0,0,0,0,0,0,0,0,0,0,0,0,0,0,0,0,0,0,0,0,0,0,0,0,0,0,0,0,0,0,0,0,0,0,0,0,0,0,0],"split_type":[0,0,0,0,0,0,0,0,0,0,0,0,0,0,0,0,0,0,0,0,0,0,0,0,0,0,0,0,0,0,0,0,0,0,0,0,0,0,0,0,0,0,0,0,0,0,0,0,0,0,0,0,0,0,0,0,0,0,0,0,0,0,0,0,0,0,0,0,0,0,0,0,0,0,0,0,0,0,0,0,0,0,0,0,0,0,0,0,0,0,0,0,0,0,0,0,0,0,0,0,0,0,0,0,0,0,0,0,0,0,0,0,0,0,0,0,0,0,0,0,0,0,0],"sum_hessian":[6.0033E4,3.6638E4,2.3395E4,1.4539E4,2.2099E4,1.4006E4,9.389E3,4.688E3,9.851E3,1.0879E4,1.122E4,7.015E3,6.991E3,6.085E3,3.304E3,9.32E2,3.756E3,4.007E3,5.844E3,4.916E3,5.963E3,1.1165E4,5.5E1,4.11E3,2.905E3,3.488E3,3.503E3,3.283E3,2.802E3,2.089E3,1.215E3,2.21E2,7.11E2,1.637E3,2.119E3,2.84E2,3.723E3,3.499E3,2.345E3,3.385E3,1.531E3,3.424E3,2.539E3,5.13E3,6.035E3,2.2E1,3.3E1,9.19E2,3.191E3,1.239E3,1.666E3,1.876E3,1.612E3,1.833E3,1.67E3,1.869E3,1.414E3,1.224E3,1.578E3,7.45E2,1.344E3,9.73E2,2.42E2,7.1E2,1E0,1.074E3,5.63E2,1.447E3,6.72E2,1.35E2,1.49E2,2.598E3,1.125E3,5.37E2,2.962E3,1.424E3,9.21E2,1.7E3,1.685E3,7.66E2,7.65E2,1.859E3,1.565E3,2.206E3,3.33E2,5.1E1,5.079E3,3.376E3,2.659E3,1.4E1,8E0,2E0,3.1E1,6.75E2,2.44E2,3.07E2,2.884E3,3.8E2,8.59E2,4.86E2,1.18E3,3.27E2,1.549E3,2.64E2,1.348E3,3.5E2,1.483E3,8.49E2,8.21E2,5.24E2,1.345E3,1.302E3,1.12E2,2.7E2,9.54E2,8.03E2,7.75E2,2.39E2,5.06E2,5.9E2,7.54E2,4.98E2,4.75E2],"tree_param":{"num_deleted":"0","num_feature":"45","num_nodes":"123","size_leaf_vector":"1"}},{"base_weights":[-6.6838527E-1,-7.2236505E2,1.1719427E3,-1.3051146E3,-3.4997812E2,7.024226E2,1.9480568E3,-1.7406791E3,-1.1273584E3,-6.1016034E2,-9.424842E1,4.2714682E2,9.8891473E2,1.653152E3,2.4888994E3,-2.0974934E3,-1.639415E3,-1.3377052E3,-1.0177294E3,-7.256518E2,-4.8404636E2,2.6675379E1,-2.4856819E2,5.2903534E2,2.7994128E2,8.686896E2,1.1940381E3,1.5290422E3,1.894073E3,2.2543538E3,2.839152E3,-2.3405298E3,-2.0131039E3,-1.5812001E3,-1.8209922E3,-1.2689445E3,-1.5279838E3,-9.4430396E2,-1.1663268E3,-6.3437274E2,-8.665772E2,-3.8140247E2,-6.2274524E2,-1.5653081E3,3.8426605E1,-2.6183426E2,1.9680742E3,3.906895E2,6.362091E2,1.829558E2,4.073518E2,9.813066E2,7.228255E2,1.318335E3,1.0656786E3,1.6677236E3,1.4044476E3,2.0246527E3,1.7978901E3,2.4151694E3,2.1624763E3,2.6509438E3,3.084767E3,-2.1870047E2,-2.5316524E2,-1.911331E2,-2.159047E2,-1.699385E2,-1.4930254E2,-1.9145662E2,-1.7061618E2,-1.3810733E2,-1.2246024E2,-1.6351903E2,-1.4236302E2,-1.049013E2,-8.476146E1,-1.2690214E2,-1.0608185E2,-7.481256E1,-4.9038857E1,-9.243246E1,-6.878251E1,-4.878904E1,-2.597644E1,-6.5648E1,-4.6074524E1,-1.7368155E2,-5.1210815E1,-8.209548E0,1.6870712E1,-4.144143E1,-7.4966807E0,8.126067E1,2.693241E2,2.9100931E1,4.9101868E1,3.313178E1,6.787463E1,1.4021677E1,3.561793E1,5.471015E1,3.7085354E1,6.411553E1,1.0270513E2,5.940135E1,8.125028E1,8.2034294E1,1.3467496E2,1.2160243E2,1.00529564E2,1.5325952E2,1.7697433E2,1.313925E2,1.544947E2,1.9412798E2,2.2350711E2,1.705132E2,1.908864E2,2.2915552E2,2.5988824E2,2.0639404E2,2.3102916E2,2.755322E2,2.5076314E2,2.9179596E2,3.256624E2],"categories":[],"categories_nodes":[],"categories_segments":[],"categories_sizes":[],"default_left":[1,0,0,0,0,0,0,0,0,0,0,0,0,0,0,0,0,1,0,0,0,1,1,0,0,0,0,0,0,0,0,0,0,0,0,0,0,0,0,0,0,0,0,1,0,1,0,0,0,0,0,0,0,0,0,0,1,0,0,0,0,0,0,0,0,0,0,0,0,0,0,0,0,0,0,0,0,0,0,0,0,0,0,0,0,0,0,0,0,0,0,0,0,0,0,0,0,0,0,0,0,0,0,0,0,0,0,0,0,0,0,0,0,0,0,0,0,0,0,0,0,0,0,0,0,0,0],"id":7,"left_children":[1,3,5,7,9,11,13,15,17,19,21,23,25,27,29,31,33,35,37,39,41,43,45,47,49,51,53,55,57,59,61,63,65,67,69,71,73,75,77,79,81,83,85,87,89,91,93,95,97,99,101,103,105,107,109,111,113,115,117,119,121,123,125,-1,-1,-1,-1,-1,-1,-1,-1,-1,-1,-1,-1,-1,-1,-1,-1,-1,-1,-1,-1,-1,-1,-1,-1,-1,-1,-1,-1,-1,-1,-1,-1,-1,-1,-1,-1,-1,-1,-1,-1,-1,-1,-1,-1,-1,-1,-1,-1,-1,-1,-1,-1,-1,-1,-1,-1,-1,-1,-1,-1,-1,-1,-1,-1],"loss_changes":[5.0789708E10,8.061618E9,8.330664E9,1.1194511E9,1.5081879E9,1.1232364E9,1.3704294E9,1.481728E8,2.35904E8,1.6330189E8,2.133571E8,1.0886131E8,1.7112166E8,1.6394957E8,2.4325325E8,1.4239488E7,3.1717376E7,4.414208E7,7.274291E7,7.486925E7,7.626995E7,1.1999558E8,1.482222E8,6.341888E7,3.668747E7,7.165056E7,3.9710464E7,6.1382656E7,2.0134912E7,2.1741568E7,4.798771E7,1.270528E6,6.166528E6,2.3369216E7,5.200896E6,1.120128E7,8.076288E6,4.5024256E7,2.285952E7,5.797376E7,2.3126656E7,3.9910944E7,1.2179712E7,7.600232E6,9.995504E7,1.4235904E8,2.2948664E7,1.8628672E7,3.1134592E7,1.2469216E7,6.351408E6,3.7977344E7,2.1730944E7,1.7361152E7,1.0334208E7,2.1275136E7,2.2758144E7,9.607936E6,8.057856E6,8.919296E6,1.2287488E7,3.487232E6,5.43232E6,0E0,0E0,0E0,0E0,0E0,0E0,0E0,0E0,0E0,0E0,0E0,0E0,0E0,0E0,0E0,0E0,0E0,0E0,0E0,0E0,0E0,0E0,0E0,0E0,0E0,0E0,0E0,0E0,0E0,0E0,0E0,0E0,0E0,0E0,0E0,0E0,0E0,0E0,0E0,0E0,0E0,0E0,0E0,0E0,0E0,0E0,0E0,0E0,0E0,0E0,0E0,0E0,0E0,0E0,0E0,0E0,0E0,0E0,0E0,0E0,0E0,0E0,0E0,0E0],"parents":[2147483647,0,0,1,1,2,2,3,3,4,4,5,5,6,6,7,7,8,8,9,9,10,10,11,11,12,12,13,13,14,14,15,15,16,16,17,17,18,18,19,19,20,20,21,21,22,22,23,23,24,24,25,25,26,26,27,27,28,28,29,29,30,30,31,31,32,32,33,33,34,34,35,35,36,36,37,37,38,38,39,39,40,40,41,41,42,42,43,43,44,44,45,45,46,46,47,47,48,48,49,49,50,50,51,51,52,52,53,53,54,54,55,55,56,56,57,57,58,58,59,59,60,60,61,61,62,62],"right_children":[2,4,6,8,10,12,14,16,18,20,22,24,26,28,30,32,34,36,38,40,42,44,46,48,50,52,54,56,58,60,62,64,66,68,70,72,74,76,78,80,82,84,86,88,90,92,94,96,98,100,102,104,106,108,110,112,114,116,118,120,122,124,126,-1,-1,-1,-1,-1,-1,-1,-1,-1,-1,-1,-1,-1,-1,-1,-1,-1,-1,-1,-1,-1,-1,-1,-1,-1,-1,-1,-1,-1,-1,-1,-1,-1,-1,-1,-1,-1,-1,-1,-1,-1,-1,-1,-1,-1,-1,-1,-1,-1,-1,-1,-1,-1,-1,-1,-1,-1,-1,-1,-1,-1,-1,-1,-1],"split_conditions":[8.747E3,6.5E3,1.1125E4,5.224E3,7.568E3,9.767E3,1.2656E4,4.323E3,5.748E3,7.059E3,2.5881904E-1,2.5881904E-1,1.0584E4,1.2033E4,1.365E4,3.778E3,8.660254E-1,5.978E3,5E-1,2.5881904E-1,2.5881904E-1,5.9236665E3,1.13255E4,9.162E3,9.255E3,2.5881904E-1,2.5881904E-1,2.5881904E-1,2.5881904E-1,2.5881904E-1,1.43E4,5.763E3,7.0710677E-1,4.818E3,5.6032085E3,-7.0710677E-1,5.558E3,-5E-1,6.6799165E3,-5E-1,7.731375E3,-5E-1,8.12975E3,5.8549115E2,-5E-1,8.168E3,1.2658E4,-5E-1,8.220083E3,2.87E1,9.502E3,9.048375E3,1.0099E4,9.303167E3,1.0508833E4,1.15E4,7.6076605E2,-2.5881904E-1,7.4661005E2,-2.5881904E-1,1.32E4,7.0710677E-1,1.4716E4,-2.1870047E2,-2.5316524E2,-1.911331E2,-2.159047E2,-1.699385E2,-1.4930254E2,-1.9145662E2,-1.7061618E2,-1.3810733E2,-1.2246024E2,-1.6351903E2,-1.4236302E2,-1.049013E2,-8.476146E1,-1.2690214E2,-1.0608185E2,-7.481256E1,-4.9038857E1,-9.243246E1,-6.878251E1,-4.878904E1,-2.597644E1,-6.5648E1,-4.6074524E1,-1.7368155E2,-5.1210815E1,-8.209548E0,1.6870712E1,-4.144143E1,-7.4966807E0,8.126067E1,2.693241E2,2.9100931E1,4.9101868E1,3.313178E1,6.787463E1,1.4021677E1,3.561793E1,5.471015E1,3.7085354E1,6.411553E1,1.0270513E2,5.940135E1,8.125028E1,8.2034294E1,1.3467496E2,1.2160243E2,1.00529564E2,1.5325952E2,1.7697433E2,1.313925E2,1.544947E2,1.9412798E2,2.2350711E2,1.705132E2,1.908864E2,2.2915552E2,2.5988824E2,2.0639404E2,2.3102916E2,2.755322E2,2.5076314E2,2.9179596E2,3.256624E2],"split_indices":[0,0,0,0,0,0,0,0,0,0,3,3,0,0,0,0,3,9,3,3,3,14,14,0,0,3,3,3,3,3,0,11,3,0,16,3,0,3,16,3,16,3,16,15,3,0,9,3,16,23,9,16,0,16,14,0,15,3,15,3,0,3,0,0,0,0,0,0,0,0,0,0,0,0,0,0,0,0,0,0,0,0,0,0,0,0,0,0,0,0,0,0,0,0,0,0,0,0,0,0,0,0,0,0,0,0,0,0,0,0,0,0,0,0,0,0,0,0,0,0,0,0,0,0,0,0,0],"split_type":[0,0,0,0,0,0,0,0,0,0,0,0,0,0,0,0,0,0,0,0,0,0,0,0,0,0,0,0,0,0,0,0,0,0,0,0,0,0,0,0,0,0,0,0,0,0,0,0,0,0,0,0,0,0,0,0,0,0,0,0,0,0,0,0,0,0,0,0,0,0,0,0,0,0,0,0,0,0,0,0,0,0,0,0,0,0,0,0,0,0,0,0,0,0,0,0,0,0,0,0,0,0,0,0,0,0,0,0,0,0,0,0,0,0,0,0,0,0,0,0,0,0,0,0,0,0,0],"sum_hessian":[6.0014E4,3.715E4,2.2864E4,1.4483E4,2.2667E4,1.4247E4,8.617E3,4.195E3,1.0288E4,1.1235E4,1.1432E4,7.267E3,6.98E3,5.579E3,3.038E3,9.23E2,3.272E3,3.521E3,6.767E3,5.862E3,5.373E3,6.41E3,5.022E3,4.293E3,2.974E3,4.404E3,2.576E3,3.687E3,1.892E3,1.824E3,1.214E3,2.31E2,6.92E2,2.485E3,7.87E2,2.592E3,9.29E2,4.534E3,2.233E3,3.561E3,2.301E3,3.09E3,2.283E3,4.6E1,6.364E3,4.993E3,2.9E1,1.876E3,2.417E3,1.69E3,1.284E3,2.482E3,1.922E3,1.304E3,1.272E3,1.739E3,1.948E3,7.94E2,1.098E3,6.54E2,1.17E3,6.94E2,5.2E2,1.35E2,9.6E1,4.16E2,2.76E2,1.054E3,1.431E3,4.25E2,3.62E2,7.26E2,1.866E3,4.51E2,4.78E2,2.172E3,2.362E3,1.126E3,1.107E3,1.987E3,1.574E3,1.736E3,5.65E2,1.646E3,1.444E3,1.887E3,3.96E2,3.9E1,7E0,3.306E3,3.058E3,2.748E3,2.245E3,1.2E1,1.7E1,9.43E2,9.33E2,2.97E2,2.12E3,1.357E3,3.33E2,2.63E2,1.021E3,2.96E2,2.186E3,7.92E2,1.13E3,7.2E1,1.232E3,3.59E2,9.13E2,7.55E2,9.84E2,1.191E3,7.57E2,5.76E2,2.18E2,6.07E2,4.91E2,3.99E2,2.55E2,7.11E2,4.59E2,3.91E2,3.03E2,2.73E2,2.47E2],"tree_param":{"num_deleted":"0","num_feature":"45","num_nodes":"127","size_leaf_vector":"1"}},{"base_weights":[2.59689E0,-5.960639E2,1.0936794E3,-1.01860876E3,-2.1155367E2,6.99728E2,1.7432771E3,-1.3721168E3,-8.2533875E2,-4.2698248E2,5.5037605E1,4.750497E2,9.8656415E2,1.5077378E3,2.2288447E3,-7.117699E2,-1.4305616E3,-7.09243E2,-1.1067552E3,-2.569214E2,-5.893186E2,-4.973597E1,3.0400024E2,3.1299182E2,7.172713E2,1.3999529E3,8.777666E2,2.0171544E3,1.4286947E3,2.062462E3,2.565381E3,-9.010561E2,-5.288668E2,-1.6827852E3,-1.3031138E3,-3.5624103E2,-7.964804E2,-1.2434022E3,-9.3861255E2,-4.4477567E2,-1.12962036E2,-7.677351E2,-4.859611E2,6.86427E1,-2.0797368E2,2.7791E2,2.120257E3,1.9091676E2,5.217977E2,1.5156761E3,6.221395E2,9.673235E2,1.8054229E3,6.24672E2,9.944619E2,1.5628999E3,2.342534E3,1.2967216E3,1.6003099E3,1.9328882E3,2.2328955E3,2.4522964E3,2.868742E3,-6.163634E1,-1.3839513E2,-7.899556E1,-3.6197758E1,-1.5911346E2,-1.916745E2,-1.217397E2,-1.547564E2,-7.499312E1,-1.5802338E1,-8.845889E1,-5.909784E1,-1.3576398E2,-1.0739668E2,-1.0082867E2,-7.670939E1,-1.2483514E2,-4.2314636E1,5.429961E1,-1.8593597E1,-8.0499504E1,-3.1773504E1,-3.8971764E1,-6.1070473E1,-1.7213762E1,1.876301E1,-3.2870403E1,-5.5719843E0,6.0688198E1,1.2094566E1,9.7600746E1,2.2261687E2,3.3526485E1,1.1096284E1,4.5779465E1,6.7496086E1,6.2648945E1,1.5798647E2,4.816595E1,8.6636566E1,6.8414276E1,1.18447205E2,1.5343065E2,2.0086382E2,5.344482E1,8.1298805E1,1.14945244E2,8.440608E1,1.2099758E2,1.7233641E2,2.2058919E2,2.742983E2,1.4771756E2,1.1831187E2,1.8677518E2,1.539472E2,1.8043724E2,2.1224524E2,2.6167258E2,2.158405E2,2.7189066E2,2.3883519E2,2.9999762E2,2.5815887E2],"categories":[],"categories_nodes":[],"categories_segments":[],"categories_sizes":[],"default_left":[1,0,0,0,1,1,0,0,0,0,0,0,0,0,0,0,0,0,0,1,1,0,0,0,0,0,0,0,0,0,1,0,0,0,0,0,0,0,0,1,0,1,0,1,0,0,0,0,0,0,0,0,0,0,0,0,0,0,0,0,0,0,0,0,0,0,0,0,0,0,0,0,0,0,0,0,0,0,0,0,0,0,0,0,0,0,0,0,0,0,0,0,0,0,0,0,0,0,0,0,0,0,0,0,0,0,0,0,0,0,0,0,0,0,0,0,0,0,0,0,0,0,0,0,0,0,0],"id":8,"left_children":[1,3,5,7,9,11,13,15,17,19,21,23,25,27,29,31,33,35,37,39,41,43,45,47,49,51,53,55,57,59,61,63,65,67,69,71,73,75,77,79,81,83,85,87,89,91,93,95,97,99,101,103,105,107,109,111,113,115,117,119,121,123,125,-1,-1,-1,-1,-1,-1,-1,-1,-1,-1,-1,-1,-1,-1,-1,-1,-1,-1,-1,-1,-1,-1,-1,-1,-1,-1,-1,-1,-1,-1,-1,-1,-1,-1,-1,-1,-1,-1,-1,-1,-1,-1,-1,-1,-1,-1,-1,-1,-1,-1,-1,-1,-1,-1,-1,-1,-1,-1,-1,-1,-1,-1,-1,-1],"loss_changes":[3.931214E10,6.313804E9,5.4555464E9,1.2638577E9,1.1686382E9,8.5505024E8,9.17205E8,2.5150157E8,3.9038822E8,3.1053862E8,2.3725552E8,2.920603E8,2.609792E8,2.154793E8,1.4180557E8,1.8011104E7,1.9100058E8,2.6082714E8,7.913498E7,1.4863427E8,1.0578982E8,1.1993635E8,1.2707018E8,1.1366221E8,2.2570278E8,2.1103616E8,1.3577114E8,1.0364518E8,1.0432922E8,3.4617856E7,2.2638592E7,3.5028384E7,1.1653024E7,4.013517E7,8.186675E7,1.3113858E8,1.2256461E8,3.5801856E7,1.800064E7,4.0924896E7,1.4916146E8,3.512243E7,4.3558976E7,1.0497659E8,5.0347416E7,1.3712574E8,2.432448E6,3.2485896E7,1.5826592E7,1.7103168E7,9.111872E7,3.5408576E7,3.135232E7,2.4371776E7,7.266842E7,1.5244096E7,1.6985856E7,5.280256E7,3.0284288E7,2.0751616E7,1.5938816E7,4.366592E6,8.84992E5,0E0,0E0,0E0,0E0,0E0,0E0,0E0,0E0,0E0,0E0,0E0,0E0,0E0,0E0,0E0,0E0,0E0,0E0,0E0,0E0,0E0,0E0,0E0,0E0,0E0,0E0,0E0,0E0,0E0,0E0,0E0,0E0,0E0,0E0,0E0,0E0,0E0,0E0,0E0,0E0,0E0,0E0,0E0,0E0,0E0,0E0,0E0,0E0,0E0,0E0,0E0,0E0,0E0,0E0,0E0,0E0,0E0,0E0,0E0,0E0,0E0,0E0,0E0,0E0],"parents":[2147483647,0,0,1,1,2,2,3,3,4,4,5,5,6,6,7,7,8,8,9,9,10,10,11,11,12,12,13,13,14,14,15,15,16,16,17,17,18,18,19,19,20,20,21,21,22,22,23,23,24,24,25,25,26,26,27,27,28,28,29,29,30,30,31,31,32,32,33,33,34,34,35,35,36,36,37,37,38,38,39,39,40,40,41,41,42,42,43,43,44,44,45,45,46,46,47,47,48,48,49,49,50,50,51,51,52,52,53,53,54,54,55,55,56,56,57,57,58,58,59,59,60,60,61,61,62,62],"right_children":[2,4,6,8,10,12,14,16,18,20,22,24,26,28,30,32,34,36,38,40,42,44,46,48,50,52,54,56,58,60,62,64,66,68,70,72,74,76,78,80,82,84,86,88,90,92,94,96,98,100,102,104,106,108,110,112,114,116,118,120,122,124,126,-1,-1,-1,-1,-1,-1,-1,-1,-1,-1,-1,-1,-1,-1,-1,-1,-1,-1,-1,-1,-1,-1,-1,-1,-1,-1,-1,-1,-1,-1,-1,-1,-1,-1,-1,-1,-1,-1,-1,-1,-1,-1,-1,-1,-1,-1,-1,-1,-1,-1,-1,-1,-1,-1,-1,-1,-1,-1,-1,-1,-1,-1,-1,-1],"split_conditions":[8.956E3,6.878E3,1.1277E4,5.59E3,7.889E3,1.0019E4,1.285E4,-7.0710677E-1,5E-1,2.5881904E-1,8.871E3,8.6E0,-8.660254E-1,-8.660254E-1,1.383E4,8.660254E-1,4.754E3,-7.0710677E-1,6.6799165E3,7.221E3,7.37E3,2.5881904E-1,1.1595667E4,9.81E3,-8.660254E-1,9.886792E3,1.0272E4,1.1158042E4,1.2036E4,2.81E1,1.472E4,-8.660254E-1,-8.660254E-1,7.0710677E-1,7.0710677E-1,6.1283335E3,7.1230415E3,2.45E1,7.5269585E3,5.9776665E3,-8.660254E-1,8.295833E3,5E-1,7.6526665E3,2.62E1,-8.660254E-1,2.75E1,5E-1,1.0444E4,9.048E3,1.0064792E4,3.01E1,1.0627792E4,1.0731305E4,2.5881904E-1,1.0170458E4,1.2483542E4,-1.8369701E-16,-7.0710677E-1,1.35E4,-8.660254E-1,-8.660254E-1,-5E-1,-6.163634E1,-1.3839513E2,-7.899556E1,-3.6197758E1,-1.5911346E2,-1.916745E2,-1.217397E2,-1.547564E2,-7.499312E1,-1.5802338E1,-8.845889E1,-5.909784E1,-1.3576398E2,-1.0739668E2,-1.0082867E2,-7.670939E1,-1.2483514E2,-4.2314636E1,5.429961E1,-1.8593597E1,-8.0499504E1,-3.1773504E1,-3.8971764E1,-6.1070473E1,-1.7213762E1,1.876301E1,-3.2870403E1,-5.5719843E0,6.0688198E1,1.2094566E1,9.7600746E1,2.2261687E2,3.3526485E1,1.1096284E1,4.5779465E1,6.7496086E1,6.2648945E1,1.5798647E2,4.816595E1,8.6636566E1,6.8414276E1,1.18447205E2,1.5343065E2,2.0086382E2,5.344482E1,8.1298805E1,1.14945244E2,8.440608E1,1.2099758E2,1.7233641E2,2.2058919E2,2.742983E2,1.4771756E2,1.1831187E2,1.8677518E2,1.539472E2,1.8043724E2,2.1224524E2,2.6167258E2,2.158405E2,2.7189066E2,2.3883519E2,2.9999762E2,2.5815887E2],"split_indices":[8,8,8,8,10,10,8,2,3,3,10,26,2,2,10,7,8,2,16,14,8,3,14,8,2,16,8,16,8,18,10,2,2,3,3,14,16,23,16,14,2,16,7,14,18,2,23,3,8,9,16,20,16,16,3,16,16,3,3,8,2,2,2,0,0,0,0,0,0,0,0,0,0,0,0,0,0,0,0,0,0,0,0,0,0,0,0,0,0,0,0,0,0,0,0,0,0,0,0,0,0,0,0,0,0,0,0,0,0,0,0,0,0,0,0,0,0,0,0,0,0,0,0,0,0,0,0],"split_type":[0,0,0,0,0,0,0,0,0,0,0,0,0,0,0,0,0,0,0,0,0,0,0,0,0,0,0,0,0,0,0,0,0,0,0,0,0,0,0,0,0,0,0,0,0,0,0,0,0,0,0,0,0,0,0,0,0,0,0,0,0,0,0,0,0,0,0,0,0,0,0,0,0,0,0,0,0,0,0,0,0,0,0,0,0,0,0,0,0,0,0,0,0,0,0,0,0,0,0,0,0,0,0,0,0,0,0,0,0,0,0,0,0,0,0,0,0,0,0,0,0,0,0,0,0,0,0],"sum_hessian":[6.0183E4,3.8861E4,2.1322E4,1.8514E4,2.0347E4,1.3274E4,8.048E3,6.542E3,1.1972E4,1.1253E4,9.094E3,7.445E3,5.829E3,5.422E3,2.626E3,5.33E2,6.009E3,8.478E3,3.494E3,5.497E3,5.756E3,6.401E3,2.693E3,4.462E3,2.983E3,1.212E3,4.617E3,7.25E2,4.697E3,1.762E3,8.64E2,2.6E2,2.73E2,2.013E3,3.996E3,1.681E3,6.797E3,1.924E3,1.57E3,2.384E3,3.113E3,2.109E3,3.647E3,3.662E3,2.739E3,2.656E3,3.7E1,2.817E3,1.645E3,3.16E2,2.667E3,5.88E2,6.24E2,1.459E3,3.158E3,3.05E2,4.2E2,2.66E3,2.037E3,1.008E3,7.54E2,6.36E2,2.28E2,1.65E2,9.5E1,1.05E2,1.68E2,1.452E3,5.61E2,2.963E3,1.033E3,5.62E2,1.119E3,4.755E3,2.042E3,1.145E3,7.79E2,1.113E3,4.57E2,6.1E1,2.323E3,3.11E2,2.802E3,1.947E3,1.62E2,2.061E3,1.586E3,1.211E3,2.451E3,1.527E3,1.212E3,8.57E2,1.799E3,4E0,3.3E1,1.003E3,1.814E3,1.163E3,4.82E2,2.2E1,2.94E2,1.695E3,9.72E2,2.57E2,3.31E2,2.71E2,3.53E2,9.89E2,4.7E2,1.552E3,1.606E3,9.8E1,2.07E2,3.18E2,1.02E2,1.023E3,1.637E3,3.72E2,1.665E3,6.07E2,4.01E2,1.17E2,6.37E2,1.15E2,5.21E2,1.5E2,7.8E1],"tree_param":{"num_deleted":"0","num_feature":"45","num_nodes":"127","size_leaf_vector":"1"}},{"base_weights":[9.9467844E-1,-6.0702246E2,9.251603E2,-1.0757433E3,-3.1035474E2,5.277347E2,1.5408363E3,-1.4461702E3,-9.4041644E2,-5.1201227E2,-1.0521591E2,3.1392105E2,7.57022E2,1.2814603E3,1.9755028E3,-1.7127332E3,-1.3564576E3,-1.0880084E3,-8.3922705E2,-6.2410034E2,-4.2509225E2,-1.1498889E2,1.626614E3,4.245177E2,2.122139E2,6.2584595E2,8.729064E2,1.1331694E3,1.414618E3,1.7692598E3,2.27445E3,-1.9185627E3,-1.6415142E3,-9.252796E2,-1.3721108E3,-7.107197E2,-1.1165728E3,-7.752522E2,-9.315697E2,-5.431102E2,-7.659261E2,-3.5381332E2,-5.560381E2,1.2748812E1,-2.2982243E2,7.744511E2,2.1814685E3,8.793191E2,3.6664597E2,1.168629E2,3.1399075E2,7.3413446E2,4.9431696E2,1.122752E3,8.2669653E2,1.0130239E3,1.2255795E3,1.2982772E3,1.5131028E3,1.9609338E3,1.7184991E3,2.1344048E3,2.5138865E3,-1.8131078E2,-2.110284E2,-1.6443661E2,1.8884497E1,-1.1192364E2,-4.6602295E1,-1.4353505E2,-1.2777854E2,-5.542406E1,-1.2631105E2,-1.0584131E2,-1.2488334E2,-5.1048443E1,-8.220226E1,-1.1000364E2,-8.753966E1,-9.033547E1,-5.229673E1,-2.7246717E1,-7.82398E1,-4.4002594E1,-2.7265339E1,-4.914072E1,-6.517494E1,4.114673E1,-8.85451E0,-3.4137997E1,-8.218192E0,1.1089196E2,-2.9180902E1,1.1183164E2,2.3126387E2,4.1891293E1,1.2590301E2,2.2516571E1,5.024365E1,4.624847E0,2.2524548E1,2.8121494E1,7.4986465E1,4.01695E1,7.783883E1,7.625923E1,4.6571102E1,8.417599E1,1.683279E2,9.309933E1,7.65913E1,1.254824E2,9.8810425E1,1.528214E2,1.1558199E2,1.2322572E2,1.407109E2,1.7319571E2,1.4558098E2,1.8602019E2,2.6690854E2,1.6353648E2,1.8164322E2,2.2067346E2,1.9654184E2,2.6492105E2,2.3057693E2],"categories":[],"categories_nodes":[],"categories_segments":[],"categories_sizes":[],"default_left":[1,0,0,0,0,0,0,0,0,0,1,0,0,0,0,0,0,0,0,0,0,0,0,0,0,0,0,0,0,0,0,0,1,0,0,0,0,0,0,0,0,0,1,0,1,0,0,0,0,0,0,0,0,0,0,0,0,0,0,0,0,0,0,0,0,0,0,0,0,0,0,0,0,0,0,0,0,0,0,0,0,0,0,0,0,0,0,0,0,0,0,0,0,0,0,0,0,0,0,0,0,0,0,0,0,0,0,0,0,0,0,0,0,0,0,0,0,0,0,0,0,0,0,0,0,0,0],"id":9,"left_children":[1,3,5,7,9,11,13,15,17,19,21,23,25,27,29,31,33,35,37,39,41,43,45,47,49,51,53,55,57,59,61,63,65,67,69,71,73,75,77,79,81,83,85,87,89,91,93,95,97,99,101,103,105,107,109,111,113,115,117,119,121,123,125,-1,-1,-1,-1,-1,-1,-1,-1,-1,-1,-1,-1,-1,-1,-1,-1,-1,-1,-1,-1,-1,-1,-1,-1,-1,-1,-1,-1,-1,-1,-1,-1,-1,-1,-1,-1,-1,-1,-1,-1,-1,-1,-1,-1,-1,-1,-1,-1,-1,-1,-1,-1,-1,-1,-1,-1,-1,-1,-1,-1,-1,-1,-1,-1],"loss_changes":[3.3863416E10,5.054291E9,5.850839E9,7.049032E8,9.208759E8,7.1233664E8,1.055103E9,8.778496E7,1.5324262E8,1.0910618E8,1.8698982E8,8.453222E7,1.0606029E8,1.1446374E8,2.1201715E8,1.0703104E7,1.7790976E7,4.4416E7,3.5480064E7,5.5879296E7,5.884813E7,1.6100517E8,2.7625808E7,9.450906E7,3.8014736E7,4.653952E7,4.203187E7,2.9690368E7,3.3475072E7,1.6848384E7,4.2484224E7,9.65504E5,4.011776E6,8.56416E6,1.4408704E7,2.5058352E7,2.8662784E7,4.448205E7,2.2723584E7,2.2189248E7,1.4246848E7,2.8560768E7,1.3461952E7,2.0993162E8,9.517094E7,9.595983E6,2.573536E6,7.044998E7,6.132579E7,1.549532E7,2.6875648E7,2.6227328E7,1.107952E7,8.962022E7,1.9218432E7,6.093184E6,3.1378944E7,8.504576E6,1.8405632E7,2.5565824E7,1.0471424E7,6.748416E6,8.564736E6,0E0,0E0,0E0,0E0,0E0,0E0,0E0,0E0,0E0,0E0,0E0,0E0,0E0,0E0,0E0,0E0,0E0,0E0,0E0,0E0,0E0,0E0,0E0,0E0,0E0,0E0,0E0,0E0,0E0,0E0,0E0,0E0,0E0,0E0,0E0,0E0,0E0,0E0,0E0,0E0,0E0,0E0,0E0,0E0,0E0,0E0,0E0,0E0,0E0,0E0,0E0,0E0,0E0,0E0,0E0,0E0,0E0,0E0,0E0,0E0,0E0,0E0,0E0,0E0],"parents":[2147483647,0,0,1,1,2,2,3,3,4,4,5,5,6,6,7,7,8,8,9,9,10,10,11,11,12,12,13,13,14,14,15,15,16,16,17,17,18,18,19,19,20,20,21,21,22,22,23,23,24,24,25,25,26,26,27,27,28,28,29,29,30,30,31,31,32,32,33,33,34,34,35,35,36,36,37,37,38,38,39,39,40,40,41,41,42,42,43,43,44,44,45,45,46,46,47,47,48,48,49,49,50,50,51,51,52,52,53,53,54,54,55,55,56,56,57,57,58,58,59,59,60,60,61,61,62,62],"right_children":[2,4,6,8,10,12,14,16,18,20,22,24,26,28,30,32,34,36,38,40,42,44,46,48,50,52,54,56,58,60,62,64,66,68,70,72,74,76,78,80,82,84,86,88,90,92,94,96,98,100,102,104,106,108,110,112,114,116,118,120,122,124,126,-1,-1,-1,-1,-1,-1,-1,-1,-1,-1,-1,-1,-1,-1,-1,-1,-1,-1,-1,-1,-1,-1,-1,-1,-1,-1,-1,-1,-1,-1,-1,-1,-1,-1,-1,-1,-1,-1,-1,-1,-1,-1,-1,-1,-1,-1,-1,-1,-1,-1,-1,-1,-1,-1,-1,-1,-1,-1,-1,-1,-1,-1,-1,-1],"split_conditions":[8.632E3,6.451E3,1.0963E4,5.136E3,7.524E3,9.649E3,1.2497E4,4.323E3,5.779E3,6.923E3,1.04605E4,-1.8369701E-16,1.0227E4,1.1609E4,1.35E4,3.778E3,-7.0710677E-1,-7.0710677E-1,2.5881904E-1,6.856E3,5E-1,-1.8369701E-16,1.165E4,-8.660254E-1,9.1E3,6.123234E-17,-8.660254E-1,2.76E1,2.82E1,-8.660254E-1,1.43E4,4.827E3,6.679E3,8.660254E-1,8.660254E-1,5.717E3,7.0710677E-1,-7.0710677E-1,0E0,5.2874585E3,-8.660254E-1,-5E-1,3.3227148E2,-7.0710677E-1,8.119E3,1.1735E4,2.78E1,8.701667E3,2.5881904E-1,2.77E1,2.87E1,8.686708E3,9.672333E3,9.815958E3,1.0493E4,-1.8369701E-16,-8.660254E-1,1.21E4,-8.660254E-1,1.2661875E4,1.2976E4,8.660254E-1,-5E-1,-1.8131078E2,-2.110284E2,-1.6443661E2,1.8884497E1,-1.1192364E2,-4.6602295E1,-1.4353505E2,-1.2777854E2,-5.542406E1,-1.2631105E2,-1.0584131E2,-1.2488334E2,-5.1048443E1,-8.220226E1,-1.1000364E2,-8.753966E1,-9.033547E1,-5.229673E1,-2.7246717E1,-7.82398E1,-4.4002594E1,-2.7265339E1,-4.914072E1,-6.517494E1,4.114673E1,-8.85451E0,-3.4137997E1,-8.218192E0,1.1089196E2,-2.9180902E1,1.1183164E2,2.3126387E2,4.1891293E1,1.2590301E2,2.2516571E1,5.024365E1,4.624847E0,2.2524548E1,2.8121494E1,7.4986465E1,4.01695E1,7.783883E1,7.625923E1,4.6571102E1,8.417599E1,1.683279E2,9.309933E1,7.65913E1,1.254824E2,9.8810425E1,1.528214E2,1.1558199E2,1.2322572E2,1.407109E2,1.7319571E2,1.4558098E2,1.8602019E2,2.6690854E2,1.6353648E2,1.8164322E2,2.2067346E2,1.9654184E2,2.6492105E2,2.3057693E2],"split_indices":[0,0,0,0,0,0,0,0,0,0,14,3,0,0,0,0,2,2,3,8,3,3,12,2,0,3,2,18,18,2,0,10,8,7,2,8,3,2,2,16,2,3,13,2,0,9,23,14,2,23,18,16,12,16,9,3,2,0,2,16,0,3,2,0,0,0,0,0,0,0,0,0,0,0,0,0,0,0,0,0,0,0,0,0,0,0,0,0,0,0,0,0,0,0,0,0,0,0,0,0,0,0,0,0,0,0,0,0,0,0,0,0,0,0,0,0,0,0,0,0,0,0,0,0,0,0,0],"split_type":[0,0,0,0,0,0,0,0,0,0,0,0,0,0,0,0,0,0,0,0,0,0,0,0,0,0,0,0,0,0,0,0,0,0,0,0,0,0,0,0,0,0,0,0,0,0,0,0,0,0,0,0,0,0,0,0,0,0,0,0,0,0,0,0,0,0,0,0,0,0,0,0,0,0,0,0,0,0,0,0,0,0,0,0,0,0,0,0,0,0,0,0,0,0,0,0,0,0,0,0,0,0,0,0,0,0,0,0,0,0,0,0,0,0,0,0,0,0,0,0,0,0,0,0,0,0,0],"sum_hessian":[6.0263E4,3.6349E4,2.3914E4,1.4088E4,2.2261E4,1.4534E4,9.38E3,3.767E3,1.0321E4,1.1225E4,1.1036E4,7.522E3,7.012E3,5.877E3,3.503E3,9.44E2,2.823E3,4.194E3,6.127E3,4.9E3,6.325E3,1.0975E4,6.1E1,3.602E3,3.92E3,3.292E3,3.72E3,2.785E3,3.092E3,2.077E3,1.426E3,2.36E2,7.08E2,1.01E2,2.722E3,2.97E2,3.897E3,3.625E3,2.502E3,3.122E3,1.778E3,4.098E3,2.227E3,5.196E3,5.779E3,2.5E1,3.6E1,4.05E2,3.197E3,2.025E3,1.895E3,1.803E3,1.489E3,5.77E2,3.143E3,1.216E3,1.569E3,1.424E3,1.668E3,4.27E2,1.65E3,9.06E2,5.2E2,1.59E2,7.7E1,7.07E2,1E0,7E1,3.1E1,1.621E3,1.101E3,2.33E2,6.4E1,2.713E3,1.184E3,5.46E2,3.079E3,6.21E2,1.881E3,1.63E2,2.959E3,5.8E1,1.72E3,1.985E3,2.113E3,1.333E3,8.94E2,1.052E3,4.144E3,3.291E3,2.488E3,1.9E1,6E0,5E0,3.1E1,1.84E2,2.21E2,1.567E3,1.63E3,1.227E3,7.98E2,1.764E3,1.31E2,2.13E2,1.59E3,1.41E2,1.348E3,3.86E2,1.91E2,1.152E3,1.991E3,1.09E2,1.107E3,2.9E2,1.279E3,8.94E2,5.3E2,3.4E2,1.328E3,3.77E2,5E1,9.02E2,7.48E2,6.26E2,2.8E2,3.08E2,2.12E2],"tree_param":{"num_deleted":"0","num_feature":"45","num_nodes":"127","size_leaf_vector":"1"}},{"base_weights":[-1.1811167E0,-5.518429E2,8.250988E2,-9.877925E2,-2.9616504E2,4.5411838E2,1.3669701E3,-1.3041963E3,-8.6455334E2,-4.71211E2,-1.0229476E2,2.7618118E2,6.6283844E2,1.1407295E3,1.776959E3,-1.5384299E3,-1.224669E3,-9.956987E2,-7.79978E2,-5.611837E2,-3.7820996E2,-1.1092182E2,1.4908643E3,3.804216E2,1.8164961E2,5.4540155E2,7.5052747E2,1.0026985E3,1.2693516E3,1.5935779E3,2.0470797E3,-1.7228798E3,-1.4730856E3,-1.1789849E3,-1.3651758E3,-9.219819E2,-1.1271747E3,-5.7321747E2,-8.036688E2,-4.9351978E2,-6.728308E2,-3.000457E2,-4.8469376E2,-2.4144406E2,-1.0087621E1,8.8429846E2,1.7417113E3,7.9710803E2,3.263177E2,1.1002693E2,2.861743E2,6.2538916E2,3.8905823E2,9.8511884E2,7.0740186E2,1.1069512E3,9.05103E2,1.3747572E3,1.1868352E3,1.5239319E3,1.742618E3,1.926369E3,2.2510977E3,-1.6270702E2,-1.9508167E2,-1.3958237E2,-1.5870006E2,-8.36358E1,-1.195802E2,-1.4404292E2,-1.2692297E2,-5.5435616E1,-9.548638E1,-3.2511044E1,-1.1415331E2,-4.285246E1,-1.056616E2,-9.107886E1,-7.513286E1,-5.980559E1,-4.2986668E1,-2.5114704E1,-6.898376E1,-1.1115702E1,-3.5466076E1,-5.1067467E1,-2.9571655E1,-1.7072319E2,-2.3094688E1,1.0300281E1,-1.1404422E1,1.146603E2,1.2487143E1,1.15484E2,1.9519833E2,1.0732137E2,2.9480375E1,1.9826647E1,4.4882305E1,4.209434E0,2.1554214E1,5.4300686E1,2.4884851E1,7.770237E1,5.6873657E1,4.3035244E1,3.7271996E0,7.358379E1,1.5248369E2,7.9795876E1,6.461953E1,1.3466641E2,1.04494286E2,1.0333174E2,8.403781E1,1.310888E2,1.5610826E2,1.2879861E2,1.0886373E2,1.6083902E2,1.42335E2,1.9844597E2,1.6393875E2,2.1410948E2,1.8707304E2,2.1112505E2,2.3853857E2],"categories":[],"categories_nodes":[],"categories_segments":[],"categories_sizes":[],"default_left":[1,0,0,0,0,0,0,0,0,0,1,0,0,0,0,0,0,1,0,0,0,1,0,0,0,0,0,0,0,0,0,1,0,0,0,0,0,0,0,0,0,0,0,0,0,0,0,0,0,0,0,0,0,0,1,0,0,0,0,0,0,0,0,0,0,0,0,0,0,0,0,0,0,0,0,0,0,0,0,0,0,0,0,0,0,0,0,0,0,0,0,0,0,0,0,0,0,0,0,0,0,0,0,0,0,0,0,0,0,0,0,0,0,0,0,0,0,0,0,0,0,0,0,0,0,0,0],"id":10,"left_children":[1,3,5,7,9,11,13,15,17,19,21,23,25,27,29,31,33,35,37,39,41,43,45,47,49,51,53,55,57,59,61,63,65,67,69,71,73,75,77,79,81,83,85,87,89,91,93,95,97,99,101,103,105,107,109,111,113,115,117,119,121,123,125,-1,-1,-1,-1,-1,-1,-1,-1,-1,-1,-1,-1,-1,-1,-1,-1,-1,-1,-1,-1,-1,-1,-1,-1,-1,-1,-1,-1,-1,-1,-1,-1,-1,-1,-1,-1,-1,-1,-1,-1,-1,-1,-1,-1,-1,-1,-1,-1,-1,-1,-1,-1,-1,-1,-1,-1,-1,-1,-1,-1,-1,-1,-1,-1],"loss_changes":[2.7263646E10,4.0075704E9,4.81651E9,5.1717222E8,7.6914995E8,5.281572E8,9.012306E8,6.748672E7,1.0535987E8,9.945395E7,1.4799883E8,7.561952E7,6.700109E7,1.1018598E8,1.6817869E8,8.791552E6,1.6267264E7,3.528627E7,2.8057344E7,4.538765E7,4.862861E7,1.4080826E8,7.284824E6,8.207187E7,3.0138464E7,3.479712E7,3.719091E7,2.9857536E7,2.660096E7,1.8789888E7,3.0043136E7,2.067136E6,3.95456E6,1.1152128E7,3.059968E6,2.856704E7,1.5083776E7,4.165371E7,2.8588288E7,2.484192E7,1.6184832E7,3.4849856E7,1.2020416E7,7.13536E7,7.0985704E7,3.641645E6,2.68188E6,5.7794304E7,5.0642656E7,1.7143764E7,1.5567536E7,1.5467712E7,1.379888E7,7.677747E7,1.7037952E7,2.0324224E7,1.217728E7,1.484032E7,1.6754944E7,9.73952E6,1.2999168E7,6.555904E6,4.59776E6,0E0,0E0,0E0,0E0,0E0,0E0,0E0,0E0,0E0,0E0,0E0,0E0,0E0,0E0,0E0,0E0,0E0,0E0,0E0,0E0,0E0,0E0,0E0,0E0,0E0,0E0,0E0,0E0,0E0,0E0,0E0,0E0,0E0,0E0,0E0,0E0,0E0,0E0,0E0,0E0,0E0,0E0,0E0,0E0,0E0,0E0,0E0,0E0,0E0,0E0,0E0,0E0,0E0,0E0,0E0,0E0,0E0,0E0,0E0,0E0,0E0,0E0,0E0,0E0],"parents":[2147483647,0,0,1,1,2,2,3,3,4,4,5,5,6,6,7,7,8,8,9,9,10,10,11,11,12,12,13,13,14,14,15,15,16,16,17,17,18,18,19,19,20,20,21,21,22,22,23,23,24,24,25,25,26,26,27,27,28,28,29,29,30,30,31,31,32,32,33,33,34,34,35,35,36,36,37,37,38,38,39,39,40,40,41,41,42,42,43,43,44,44,45,45,46,46,47,47,48,48,49,49,50,50,51,51,52,52,53,53,54,54,55,55,56,56,57,57,58,58,59,59,60,60,61,61,62,62],"right_children":[2,4,6,8,10,12,14,16,18,20,22,24,26,28,30,32,34,36,38,40,42,44,46,48,50,52,54,56,58,60,62,64,66,68,70,72,74,76,78,80,82,84,86,88,90,92,94,96,98,100,102,104,106,108,110,112,114,116,118,120,122,124,126,-1,-1,-1,-1,-1,-1,-1,-1,-1,-1,-1,-1,-1,-1,-1,-1,-1,-1,-1,-1,-1,-1,-1,-1,-1,-1,-1,-1,-1,-1,-1,-1,-1,-1,-1,-1,-1,-1,-1,-1,-1,-1,-1,-1,-1,-1,-1,-1,-1,-1,-1,-1,-1,-1,-1,-1,-1,-1,-1,-1,-1,-1,-1,-1],"split_conditions":[8.602E3,6.382E3,1.0867E4,5.136E3,7.524E3,9.649E3,1.2497E4,4.323E3,5.717E3,6.969E3,9.889E3,-1.8369701E-16,1.014E4,1.155E4,1.35E4,3.778E3,8.660254E-1,5.778E3,-7.0710677E-1,6.835E3,2.5881904E-1,7.951E3,1.1181E4,-8.660254E-1,9.162E3,5E-1,-8.660254E-1,2.5881904E-1,6.123234E-17,8.6E0,1.43E4,5.763E3,7.0710677E-1,-7.0710677E-1,5.541875E3,-7.0710677E-1,-8.660254E-1,-1.8369701E-16,2.5881904E-1,5.81693E10,-8.660254E-1,-7.0710677E-1,8.33275E3,5.651E3,-1.8369701E-16,5E-1,9.725748E10,7.15753E2,2.5881904E-1,2.77E1,8.956E3,-8.660254E-1,8.660254E-1,9.784958E3,1.0493E4,-8.660254E-1,1.08212E4,-2.5881904E-1,-2.5881904E-1,-2.5881904E-1,-8.660254E-1,-8.660254E-1,3.1E1,-1.6270702E2,-1.9508167E2,-1.3958237E2,-1.5870006E2,-8.36358E1,-1.195802E2,-1.4404292E2,-1.2692297E2,-5.5435616E1,-9.548638E1,-3.2511044E1,-1.1415331E2,-4.285246E1,-1.056616E2,-9.107886E1,-7.513286E1,-5.980559E1,-4.2986668E1,-2.5114704E1,-6.898376E1,-1.1115702E1,-3.5466076E1,-5.1067467E1,-2.9571655E1,-1.7072319E2,-2.3094688E1,1.0300281E1,-1.1404422E1,1.146603E2,1.2487143E1,1.15484E2,1.9519833E2,1.0732137E2,2.9480375E1,1.9826647E1,4.4882305E1,4.209434E0,2.1554214E1,5.4300686E1,2.4884851E1,7.770237E1,5.6873657E1,4.3035244E1,3.7271996E0,7.358379E1,1.5248369E2,7.9795876E1,6.461953E1,1.3466641E2,1.04494286E2,1.0333174E2,8.403781E1,1.310888E2,1.5610826E2,1.2879861E2,1.0886373E2,1.6083902E2,1.42335E2,1.9844597E2,1.6393875E2,2.1410948E2,1.8707304E2,2.1112505E2,2.3853857E2],"split_indices":[0,0,0,0,0,0,0,0,0,0,8,3,0,0,0,0,3,9,2,8,3,0,8,2,0,3,2,3,3,26,0,11,3,2,16,2,2,3,2,27,2,2,16,8,3,6,27,13,2,23,8,2,2,16,9,2,14,3,2,2,2,2,23,0,0,0,0,0,0,0,0,0,0,0,0,0,0,0,0,0,0,0,0,0,0,0,0,0,0,0,0,0,0,0,0,0,0,0,0,0,0,0,0,0,0,0,0,0,0,0,0,0,0,0,0,0,0,0,0,0,0,0,0,0,0,0,0],"split_type":[0,0,0,0,0,0,0,0,0,0,0,0,0,0,0,0,0,0,0,0,0,0,0,0,0,0,0,0,0,0,0,0,0,0,0,0,0,0,0,0,0,0,0,0,0,0,0,0,0,0,0,0,0,0,0,0,0,0,0,0,0,0,0,0,0,0,0,0,0,0,0,0,0,0,0,0,0,0,0,0,0,0,0,0,0,0,0,0,0,0,0,0,0,0,0,0,0,0,0,0,0,0,0,0,0,0,0,0,0,0,0,0,0,0,0,0,0,0,0,0,0,0,0,0,0,0,0],"sum_hessian":[5.9918E4,3.5956E4,2.3962E4,1.3291E4,2.2665E4,1.4225E4,9.737E3,3.723E3,9.568E3,1.191E4,1.0755E4,7.68E3,6.545E3,6.277E3,3.46E3,9.39E2,2.784E3,3.747E3,5.821E3,6.051E3,5.859E3,1.0698E4,5.7E1,3.651E3,4.029E3,2.801E3,3.744E3,3.032E3,3.245E3,2.065E3,1.395E3,2.39E2,7E2,2.108E3,6.76E2,2.406E3,1.341E3,6.01E2,5.22E3,3.771E3,2.28E3,3.381E3,2.478E3,4.662E3,6.036E3,1.8E1,3.9E1,4.18E2,3.233E3,2.392E3,1.637E3,1.851E3,9.5E2,5.78E2,3.166E3,1.461E3,1.571E3,1.418E3,1.827E3,1.415E3,6.5E2,8.83E2,5.12E2,1.74E2,6.5E1,4.25E2,2.75E2,1.01E2,2.007E3,3.71E2,3.05E2,1.99E2,2.207E3,2.4E1,1.317E3,4.64E2,1.37E2,1.708E3,3.512E3,1.424E3,2.347E3,8.9E1,2.191E3,7.59E2,2.622E3,2.177E3,3.01E2,3.2E1,4.63E3,2.891E3,3.145E3,1.3E1,5E0,1.2E1,2.7E1,2.69E2,1.49E2,1.582E3,1.651E3,1.456E3,9.36E2,2.06E2,1.431E3,5E2,1.351E3,8.5E2,1E2,3.97E2,1.81E2,1.272E3,1.894E3,2.96E2,1.165E3,5.22E2,1.049E3,1.062E3,3.56E2,8.94E2,9.33E2,7.61E2,6.54E2,1.89E2,4.61E2,1.74E2,7.09E2,2.59E2,2.53E2],"tree_param":{"num_deleted":"0","num_feature":"45","num_nodes":"127","size_leaf_vector":"1"}},{"base_weights":[1.3527564E0,-4.4553555E2,8.316378E2,-7.8111957E2,-1.38462E2,5.468101E2,1.3438903E3,-1.0564283E3,-6.2555725E2,-2.8392313E2,4.1625847E1,3.7011752E2,7.3600104E2,1.174107E3,1.7153829E3,-1.2737828E3,-9.5854803E2,-7.3855457E2,-5.322806E2,-2.943328E2,1.2948677E3,1.11610016E2,-8.670231E1,2.752572E2,4.70378E2,6.42672E2,8.583231E2,1.0635178E3,1.3061339E3,1.5993737E3,1.9764785E3,-1.4320935E3,-1.1938262E3,-8.9453503E2,-1.0655205E3,-6.877999E2,-8.347407E2,-4.7015112E2,-6.317678E2,-2.2328818E2,-4.2496002E2,7.70174E2,1.6351095E3,3.694308E1,1.9858438E2,-1.8939891E2,-7.8961234E0,1.956935E2,3.4764154E2,9.1455164E2,3.8798807E2,8.6100934E2,6.016414E2,9.578692E2,7.6260254E2,1.1575178E3,9.78568E2,1.4130371E3,1.2339369E3,1.7410668E3,1.5262042E3,2.1946516E3,1.9070184E3,-5.548097E1,-1.4466946E2,-6.204289E1,-1.2120821E2,-6.1656147E1,-9.205331E1,-1.18131836E2,-9.744956E1,-7.644787E1,-6.1751583E1,-8.92781E1,-7.1712166E1,-5.2926052E1,-3.1779081E1,-7.5164116E1,-5.732669E1,-3.0649298E1,-1.1707197E1,-1.7688048E2,-4.1558838E1,9.902508E1,1.367218E0,1.23456276E2,1.8901425E2,1.7428066E1,-2.4747088E0,2.3827936E1,7.8148727E0,-9.138861E0,-2.6976065E1,1.2166663E1,-7.019367E0,3.426829E1,1.5221537E1,4.9852386E1,3.1016586E1,5.1001602E1,1.1912067E2,3.0049063E1,5.059132E1,5.7973583E1,1.3362299E2,6.668813E1,5.3172585E1,1.1695778E2,9.027663E1,8.881498E1,7.0149506E1,1.0173873E2,1.2341039E2,1.0988586E2,9.010973E1,1.3347878E2,1.5930785E2,1.1438706E2,1.3277351E2,1.6406683E2,1.9067285E2,1.5985059E2,1.4299886E2,2.0751994E2,2.4554825E2,1.8379778E2,2.056903E2],"categories":[],"categories_nodes":[],"categories_segments":[],"categories_sizes":[],"default_left":[1,0,0,0,1,0,0,0,0,1,0,0,0,0,0,0,0,0,0,0,0,0,0,0,0,0,0,0,0,0,0,0,0,0,0,0,0,0,0,1,0,0,0,0,0,0,0,0,0,0,0,0,0,0,0,0,0,0,0,0,0,0,0,0,0,0,0,0,0,0,0,0,0,0,0,0,0,0,0,0,0,0,0,0,0,0,0,0,0,0,0,0,0,0,0,0,0,0,0,0,0,0,0,0,0,0,0,0,0,0,0,0,0,0,0,0,0,0,0,0,0,0,0,0,0,0,0],"id":11,"left_children":[1,3,5,7,9,11,13,15,17,19,21,23,25,27,29,31,33,35,37,39,41,43,45,47,49,51,53,55,57,59,61,63,65,67,69,71,73,75,77,79,81,83,85,87,89,91,93,95,97,99,101,103,105,107,109,111,113,115,117,119,121,123,125,-1,-1,-1,-1,-1,-1,-1,-1,-1,-1,-1,-1,-1,-1,-1,-1,-1,-1,-1,-1,-1,-1,-1,-1,-1,-1,-1,-1,-1,-1,-1,-1,-1,-1,-1,-1,-1,-1,-1,-1,-1,-1,-1,-1,-1,-1,-1,-1,-1,-1,-1,-1,-1,-1,-1,-1,-1,-1,-1,-1,-1,-1,-1,-1],"loss_changes":[2.2264537E10,4.019729E9,3.062659E9,7.9760486E8,5.33646E8,4.5084698E8,4.7116186E8,1.4191514E8,1.2515891E8,1.8558355E8,8.176317E7,6.625555E7,7.383629E7,7.383347E7,6.804992E7,2.469504E7,3.084032E7,2.571008E7,4.0059264E7,1.0380794E8,1.195136E7,3.8249464E7,2.600172E7,2.06016E7,1.2377683E8,3.2628352E7,2.6111872E7,2.1297664E7,1.6347904E7,1.4272768E7,6.710784E6,8.09984E6,1.3819264E7,2.0469504E7,1.711552E7,1.8552192E7,1.2023168E7,3.6062656E7,1.7149952E7,6.40728E7,4.8923264E7,5.1476E6,2.161224E6,2.6870224E7,1.2989632E7,1.0962756E7,1.4690495E7,1.0888928E7,1.0464352E7,5.8708384E7,2.9388864E7,7.715315E7,1.386752E7,1.5007872E7,1.0432128E7,1.299648E7,1.2820608E7,1.1088128E7,1.0367616E7,6.002816E6,5.26208E6,1.07584E5,1.941888E6,0E0,0E0,0E0,0E0,0E0,0E0,0E0,0E0,0E0,0E0,0E0,0E0,0E0,0E0,0E0,0E0,0E0,0E0,0E0,0E0,0E0,0E0,0E0,0E0,0E0,0E0,0E0,0E0,0E0,0E0,0E0,0E0,0E0,0E0,0E0,0E0,0E0,0E0,0E0,0E0,0E0,0E0,0E0,0E0,0E0,0E0,0E0,0E0,0E0,0E0,0E0,0E0,0E0,0E0,0E0,0E0,0E0,0E0,0E0,0E0,0E0,0E0,0E0,0E0],"parents":[2147483647,0,0,1,1,2,2,3,3,4,4,5,5,6,6,7,7,8,8,9,9,10,10,11,11,12,12,13,13,14,14,15,15,16,16,17,17,18,18,19,19,20,20,21,21,22,22,23,23,24,24,25,25,26,26,27,27,28,28,29,29,30,30,31,31,32,32,33,33,34,34,35,35,36,36,37,37,38,38,39,39,40,40,41,41,42,42,43,43,44,44,45,45,46,46,47,47,48,48,49,49,50,50,51,51,52,52,53,53,54,54,55,55,56,56,57,57,58,58,59,59,60,60,61,61,62,62],"right_children":[2,4,6,8,10,12,14,16,18,20,22,24,26,28,30,32,34,36,38,40,42,44,46,48,50,52,54,56,58,60,62,64,66,68,70,72,74,76,78,80,82,84,86,88,90,92,94,96,98,100,102,104,106,108,110,112,114,116,118,120,122,124,126,-1,-1,-1,-1,-1,-1,-1,-1,-1,-1,-1,-1,-1,-1,-1,-1,-1,-1,-1,-1,-1,-1,-1,-1,-1,-1,-1,-1,-1,-1,-1,-1,-1,-1,-1,-1,-1,-1,-1,-1,-1,-1,-1,-1,-1,-1,-1,-1,-1,-1,-1,-1,-1,-1,-1,-1,-1,-1,-1,-1,-1,-1,-1,-1],"split_conditions":[8.985E3,6.9E3,1.1387E4,5.624E3,7.951E3,1.0055E4,1.2976E4,4.757E3,6.263E3,9.565667E3,5E-1,2.72E1,1.0773E4,1.21E4,1.405E4,4.183E3,5E-1,5E-1,2.5881904E-1,5E-1,1.1442E4,8.466E3,8.357E3,9.427E3,-8.660254E-1,-8.660254E-1,2.5881904E-1,2.5881904E-1,6.123234E-17,2.5881904E-1,-8.660254E-1,-7.0710677E-1,-7.0710677E-1,-7.0710677E-1,5.9602085E3,-5E-1,6.9727085E3,-2.5881904E-1,0E0,7.479E3,6.586E3,8.660254E-1,1.1984E4,-7.0710677E-1,7.194533E2,6.2981157E10,6.2981157E10,-1.8369701E-16,-1.8369701E-16,8.774E3,2.5881904E-1,9.456375E3,2.5881904E-1,-8.660254E-1,1.0773667E4,1.1494708E4,1.1435E4,-2.5881904E-1,6.780516E2,-2.5881904E-1,-2.5881904E-1,1.4267333E4,1.4716E4,-5.548097E1,-1.4466946E2,-6.204289E1,-1.2120821E2,-6.1656147E1,-9.205331E1,-1.18131836E2,-9.744956E1,-7.644787E1,-6.1751583E1,-8.92781E1,-7.1712166E1,-5.2926052E1,-3.1779081E1,-7.5164116E1,-5.732669E1,-3.0649298E1,-1.1707197E1,-1.7688048E2,-4.1558838E1,9.902508E1,1.367218E0,1.23456276E2,1.8901425E2,1.7428066E1,-2.4747088E0,2.3827936E1,7.8148727E0,-9.138861E0,-2.6976065E1,1.2166663E1,-7.019367E0,3.426829E1,1.5221537E1,4.9852386E1,3.1016586E1,5.1001602E1,1.1912067E2,3.0049063E1,5.059132E1,5.7973583E1,1.3362299E2,6.668813E1,5.3172585E1,1.1695778E2,9.027663E1,8.881498E1,7.0149506E1,1.0173873E2,1.2341039E2,1.0988586E2,9.010973E1,1.3347878E2,1.5930785E2,1.1438706E2,1.3277351E2,1.6406683E2,1.9067285E2,1.5985059E2,1.4299886E2,2.0751994E2,2.4554825E2,1.8379778E2,2.056903E2],"split_indices":[0,0,0,0,0,0,0,0,0,14,3,18,0,0,0,0,3,3,3,3,8,0,0,0,2,2,3,3,3,3,2,2,2,2,16,3,16,3,2,0,12,6,11,2,15,27,27,3,3,16,2,16,3,2,14,16,14,3,15,3,2,12,0,0,0,0,0,0,0,0,0,0,0,0,0,0,0,0,0,0,0,0,0,0,0,0,0,0,0,0,0,0,0,0,0,0,0,0,0,0,0,0,0,0,0,0,0,0,0,0,0,0,0,0,0,0,0,0,0,0,0,0,0,0,0,0,0],"split_type":[0,0,0,0,0,0,0,0,0,0,0,0,0,0,0,0,0,0,0,0,0,0,0,0,0,0,0,0,0,0,0,0,0,0,0,0,0,0,0,0,0,0,0,0,0,0,0,0,0,0,0,0,0,0,0,0,0,0,0,0,0,0,0,0,0,0,0,0,0,0,0,0,0,0,0,0,0,0,0,0,0,0,0,0,0,0,0,0,0,0,0,0,0,0,0,0,0,0,0,0,0,0,0,0,0,0,0,0,0,0,0,0,0,0,0,0,0,0,0,0,0,0,0,0,0,0,0],"sum_hessian":[6.0003E4,3.9008E4,2.0995E4,1.8638E4,2.037E4,1.3494E4,7.501E3,6.727E3,1.1911E4,1.1268E4,9.102E3,6.979E3,6.515E3,5.151E3,2.35E3,2.085E3,4.642E3,5.383E3,6.528E3,1.1195E4,7.3E1,5.89E3,3.212E3,3.588E3,3.391E3,3.699E3,2.816E3,2.808E3,2.343E3,1.632E3,7.18E2,6.94E2,1.391E3,2.91E3,1.732E3,3.529E3,1.854E3,4.022E3,2.506E3,7.253E3,3.942E3,3E1,4.3E1,3.17E3,2.72E3,1.394E3,1.818E3,1.711E3,1.877E3,5.29E2,2.862E3,5.82E2,3.117E3,1.376E3,1.44E3,1.327E3,1.481E3,9.37E2,1.406E3,5.48E2,1.084E3,1.66E2,5.52E2,1.2E1,6.82E2,4.4E1,1.347E3,2.51E2,2.659E3,7.57E2,9.75E2,1.683E3,1.846E3,1.237E3,6.17E2,2.896E3,1.126E3,8.18E2,1.688E3,4.066E3,3.187E3,2.6E1,3.916E3,2.3E1,7E0,1.9E1,2.4E1,9.82E2,2.188E3,2.045E3,6.75E2,6.29E2,7.65E2,5.9E2,1.228E3,3.89E2,1.322E3,3.71E2,1.506E3,2.16E2,3.13E2,1.645E3,1.217E3,3.67E2,2.15E2,1.608E3,1.509E3,2.8E2,1.096E3,4.67E2,9.73E2,4.74E2,8.53E2,5.75E2,9.06E2,6.59E2,2.78E2,7.24E2,6.82E2,3.48E2,2E2,6.1E2,4.74E2,1.2E2,4.6E1,3.87E2,1.65E2],"tree_param":{"num_deleted":"0","num_feature":"45","num_nodes":"127","size_leaf_vector":"1"}},{"base_weights":[-3.091123E0,-4.4510605E2,6.713625E2,-7.858171E2,-2.2999377E2,3.6947662E2,1.1044786E3,-1.01904144E3,-6.68921E2,-3.8139297E2,-8.5436714E1,2.0627464E2,5.225234E2,9.073132E2,1.4181195E3,-1.2208671E3,-9.5162933E2,-7.3838885E2,-5.747348E2,-3.9130032E2,1.1948203E3,-1.6535904E1,-2.0997165E2,2.5832492E2,9.715778E1,4.0948547E2,6.022825E2,7.830832E2,9.869094E2,1.2720505E3,1.6597727E3,-1.225826E3,5.286688E2,-8.9480597E2,-1.0342227E3,-6.8441455E2,-8.351802E2,-4.7106262E2,-6.4307416E2,-3.4315387E2,-5.1593054E2,9.819641E1,1.5033328E3,-1.3220908E2,4.523267E1,-2.8267877E2,-8.527367E1,1.2246306E2,2.9427112E2,-1.8299246E1,1.320599E2,3.24731E2,4.9145773E2,1.0049991E3,5.31679E2,8.776009E2,6.97498E2,8.9621875E2,1.0678383E3,1.1536895E3,1.3216971E3,1.5969515E3,1.9544609E3,-1.4221988E2,-1.17573586E2,-4.9770824E1,1.0366973E2,-1.014475E2,-8.41928E1,-1.1427166E2,-9.60982E1,-4.2318466E1,-7.0975586E1,-2.7904608E1,-8.47173E1,-1.9014236E1,-5.1513855E1,-1.8277813E1,-6.58936E1,-4.217986E0,-3.917744E1,-5.7067726E1,-3.908296E1,5.0952103E1,-9.08622E1,2.3627342E2,1.22199585E2,-2.2730654E1,-5.0342646E0,-4.0989623E0,1.1782169E1,-3.5316845E1,-1.8920406E1,1.887385E0,-1.5772498E1,3.8536808E-1,1.8111614E1,7.157249E1,2.4030167E1,-5.2361035E0,2.1935476E1,1.628692E1,-1.3231999E1,4.7460888E1,2.9161076E1,6.942379E1,4.658778E1,7.298045E1,1.307205E2,4.557161E1,6.392932E1,6.3990017E1,9.1872215E1,8.155164E1,6.414449E1,8.535177E1,9.763653E1,1.2766161E2,1.01640434E2,1.0973228E2,1.2487878E2,1.4311333E2,1.2816417E2,1.480537E2,1.6779614E2,1.7296564E2,2.0746086E2],"categories":[],"categories_nodes":[],"categories_segments":[],"categories_sizes":[],"default_left":[1,0,0,0,1,0,0,0,0,1,0,0,0,0,0,1,0,1,0,0,0,0,0,0,0,0,0,0,0,0,0,0,0,0,0,0,0,0,0,0,1,0,0,0,0,0,0,0,0,0,0,0,0,0,0,0,0,0,0,0,0,0,0,0,0,0,0,0,0,0,0,0,0,0,0,0,0,0,0,0,0,0,0,0,0,0,0,0,0,0,0,0,0,0,0,0,0,0,0,0,0,0,0,0,0,0,0,0,0,0,0,0,0,0,0,0,0,0,0,0,0,0,0,0,0,0,0],"id":12,"left_children":[1,3,5,7,9,11,13,15,17,19,21,23,25,27,29,31,33,35,37,39,41,43,45,47,49,51,53,55,57,59,61,63,65,67,69,71,73,75,77,79,81,83,85,87,89,91,93,95,97,99,101,103,105,107,109,111,113,115,117,119,121,123,125,-1,-1,-1,-1,-1,-1,-1,-1,-1,-1,-1,-1,-1,-1,-1,-1,-1,-1,-1,-1,-1,-1,-1,-1,-1,-1,-1,-1,-1,-1,-1,-1,-1,-1,-1,-1,-1,-1,-1,-1,-1,-1,-1,-1,-1,-1,-1,-1,-1,-1,-1,-1,-1,-1,-1,-1,-1,-1,-1,-1,-1,-1,-1,-1],"loss_changes":[1.7877873E10,2.6549376E9,3.1038976E9,3.8154547E8,4.8600794E8,3.4937792E8,6.017065E8,6.2498304E7,6.0699136E7,1.6985498E8,9.748884E7,3.844259E7,6.484749E7,5.845811E7,1.306793E8,1.0781568E7,1.5556864E7,2.749824E7,2.7824128E7,6.4508416E7,2.285828E7,5.227855E7,3.6667744E7,2.2355808E7,8.823418E6,2.0613472E7,1.1976653E8,1.8349184E7,2.5809664E7,1.2278784E7,2.3055872E7,9.787264E6,2.601688E6,1.2358528E7,1.022528E7,2.2571392E7,1.256256E7,1.9477728E7,1.7329344E7,1.1381754E8,2.033728E7,7.0890295E6,9.927168E6,1.9817696E7,2.9859268E7,1.6774672E7,1.1261049E7,6.684792E6,8.228093E7,4.1318E6,1.3713902E7,7.173568E6,7.550592E6,5.144019E7,2.915392E7,1.0261824E7,7.646848E6,5.073536E6,1.9341568E7,2.392704E6,5.389568E6,8.559104E6,3.001984E6,0E0,0E0,0E0,0E0,0E0,0E0,0E0,0E0,0E0,0E0,0E0,0E0,0E0,0E0,0E0,0E0,0E0,0E0,0E0,0E0,0E0,0E0,0E0,0E0,0E0,0E0,0E0,0E0,0E0,0E0,0E0,0E0,0E0,0E0,0E0,0E0,0E0,0E0,0E0,0E0,0E0,0E0,0E0,0E0,0E0,0E0,0E0,0E0,0E0,0E0,0E0,0E0,0E0,0E0,0E0,0E0,0E0,0E0,0E0,0E0,0E0,0E0,0E0,0E0],"parents":[2147483647,0,0,1,1,2,2,3,3,4,4,5,5,6,6,7,7,8,8,9,9,10,10,11,11,12,12,13,13,14,14,15,15,16,16,17,17,18,18,19,19,20,20,21,21,22,22,23,23,24,24,25,25,26,26,27,27,28,28,29,29,30,30,31,31,32,32,33,33,34,34,35,35,36,36,37,37,38,38,39,39,40,40,41,41,42,42,43,43,44,44,45,45,46,46,47,47,48,48,49,49,50,50,51,51,52,52,53,53,54,54,55,55,56,56,57,57,58,58,59,59,60,60,61,61,62,62],"right_children":[2,4,6,8,10,12,14,16,18,20,22,24,26,28,30,32,34,36,38,40,42,44,46,48,50,52,54,56,58,60,62,64,66,68,70,72,74,76,78,80,82,84,86,88,90,92,94,96,98,100,102,104,106,108,110,112,114,116,118,120,122,124,126,-1,-1,-1,-1,-1,-1,-1,-1,-1,-1,-1,-1,-1,-1,-1,-1,-1,-1,-1,-1,-1,-1,-1,-1,-1,-1,-1,-1,-1,-1,-1,-1,-1,-1,-1,-1,-1,-1,-1,-1,-1,-1,-1,-1,-1,-1,-1,-1,-1,-1,-1,-1,-1,-1,-1,-1,-1,-1,-1,-1,-1,-1,-1,-1],"split_conditions":[8.632E3,6.451E3,1.0867E4,5.308E3,7.457E3,9.537E3,1.24E4,4.428E3,6.03E3,9.565667E3,5E-1,5E-1,2.7E1,1.1387E4,1.35E4,6.679E3,5E-1,6.031E3,6.217E3,6.2163477E2,1.0534E4,7.84E3,8.168E3,8.1058335E3,1.77E1,1.0099E4,-8.660254E-1,2.5881904E-1,2.82E1,2.86E1,1.4716E4,3.778E3,3.778E3,-7.0710677E-1,5.6370835E3,-7.0710677E-1,-8.660254E-1,-7.0710677E-1,-8.660254E-1,-7.0710677E-1,7.17E3,8.650107E2,7.3412787E2,-5E-1,-5E-1,2.58E1,6.2981157E10,-9.659258E-1,-8.660254E-1,9.609042E3,8.660254E-1,-1.8369701E-16,-1.8369701E-16,9.326E3,2.5881904E-1,1.029725E4,1.0773667E4,1.1974E4,-8.660254E-1,1.2976E4,-8.660254E-1,2.81E1,3.08E1,-1.4221988E2,-1.17573586E2,-4.9770824E1,1.0366973E2,-1.014475E2,-8.41928E1,-1.1427166E2,-9.60982E1,-4.2318466E1,-7.0975586E1,-2.7904608E1,-8.47173E1,-1.9014236E1,-5.1513855E1,-1.8277813E1,-6.58936E1,-4.217986E0,-3.917744E1,-5.7067726E1,-3.908296E1,5.0952103E1,-9.08622E1,2.3627342E2,1.22199585E2,-2.2730654E1,-5.0342646E0,-4.0989623E0,1.1782169E1,-3.5316845E1,-1.8920406E1,1.887385E0,-1.5772498E1,3.8536808E-1,1.8111614E1,7.157249E1,2.4030167E1,-5.2361035E0,2.1935476E1,1.628692E1,-1.3231999E1,4.7460888E1,2.9161076E1,6.942379E1,4.658778E1,7.298045E1,1.307205E2,4.557161E1,6.392932E1,6.3990017E1,9.1872215E1,8.155164E1,6.414449E1,8.535177E1,9.763653E1,1.2766161E2,1.01640434E2,1.0973228E2,1.2487878E2,1.4311333E2,1.2816417E2,1.480537E2,1.6779614E2,1.7296564E2,2.0746086E2],"split_indices":[0,0,0,0,0,0,0,0,0,14,3,3,18,0,0,8,3,9,8,15,8,0,0,16,22,0,2,3,18,23,0,0,0,3,16,2,2,2,2,2,0,15,17,3,3,18,27,2,2,16,2,3,3,9,2,16,14,0,2,0,2,18,23,0,0,0,0,0,0,0,0,0,0,0,0,0,0,0,0,0,0,0,0,0,0,0,0,0,0,0,0,0,0,0,0,0,0,0,0,0,0,0,0,0,0,0,0,0,0,0,0,0,0,0,0,0,0,0,0,0,0,0,0,0,0,0,0],"split_type":[0,0,0,0,0,0,0,0,0,0,0,0,0,0,0,0,0,0,0,0,0,0,0,0,0,0,0,0,0,0,0,0,0,0,0,0,0,0,0,0,0,0,0,0,0,0,0,0,0,0,0,0,0,0,0,0,0,0,0,0,0,0,0,0,0,0,0,0,0,0,0,0,0,0,0,0,0,0,0,0,0,0,0,0,0,0,0,0,0,0,0,0,0,0,0,0,0,0,0,0,0,0,0,0,0,0,0,0,0,0,0,0,0,0,0,0,0,0,0,0,0,0,0,0,0,0,0],"sum_hessian":[5.9967E4,3.6226E4,2.3741E4,1.4019E4,2.2207E4,1.3991E4,9.75E3,4.678E3,9.341E3,1.0846E4,1.1361E4,6.772E3,7.219E3,5.989E3,3.761E3,1.167E3,3.511E3,5.372E3,3.969E3,1.0779E4,6.7E1,7.315E3,4.046E3,4.584E3,2.188E3,2.989E3,4.23E3,2.343E3,3.646E3,2.348E3,1.413E3,1.164E3,3E0,2.087E3,1.424E3,3.454E3,1.918E3,1.58E3,2.389E3,7.778E3,3.001E3,1.5E1,5.2E1,2.546E3,4.769E3,2.555E3,1.491E3,9.6E2,3.624E3,5.08E2,1.68E3,1.472E3,1.517E3,6.29E2,3.601E3,1.109E3,1.234E3,1.725E3,1.921E3,7.01E2,1.647E3,1.17E3,2.43E2,2.31E2,9.33E2,1E0,2E0,6.34E2,1.453E3,5.68E2,8.56E2,3.07E2,3.147E3,4.1E1,1.877E3,2.15E2,1.365E3,8E1,2.309E3,1.082E3,6.696E3,2.085E3,9.16E2,1.1E1,4E0,1.1E1,4.1E1,1.177E3,1.369E3,2.18E3,2.589E3,1.455E3,1.1E3,6.12E2,8.79E2,3.18E2,6.42E2,4.1E2,3.214E3,4.45E2,6.3E1,1.505E3,1.75E2,2.64E2,1.208E3,1.67E2,1.35E3,3.31E2,2.98E2,2.114E3,1.487E3,1.66E2,9.43E2,3.93E2,8.41E2,1.133E3,5.92E2,3.75E2,1.546E3,4.48E2,2.53E2,4.32E2,1.215E3,4.88E2,6.82E2,9E1,1.53E2],"tree_param":{"num_deleted":"0","num_feature":"45","num_nodes":"127","size_leaf_vector":"1"}},{"base_weights":[1.6917259E0,-3.6099472E2,6.733664E2,-6.650429E2,-1.3637636E2,4.4385016E2,1.0900488E3,-8.6908594E2,-5.335608E2,-2.6129688E2,2.368559E1,3.2072333E2,6.302466E2,9.501262E2,1.3974246E3,-1.0132912E3,-7.7302203E2,-6.0565027E2,-4.5840216E2,-2.6959515E2,1.0095015E3,-4.232735E1,1.0391526E2,2.350263E2,4.014827E2,5.425657E2,7.079649E2,8.6739667E2,1.0673303E3,1.3031633E3,1.6131687E3,-1.216151E3,-9.6817993E2,-7.282835E2,-9.019959E2,-5.643131E2,-7.0534717E2,-3.9077142E2,-5.64015E2,-3.6111267E2,-2.0182535E2,6.654761E2,1.5262452E3,1.9191727E1,-1.6016069E2,1.7518422E2,1.3245609E1,1.7732191E2,3.069993E2,3.12427E2,4.8399643E2,4.6025546E2,6.001062E2,1.00318933E3,6.483506E2,8.037263E2,9.55435E2,9.7720667E2,1.1280662E3,1.246483E3,1.4210768E3,1.7443015E3,1.5241262E3,-1.1865071E2,-1.6094025E2,-9.719066E1,5.1116222E1,-4.7454723E1,-7.4708405E1,-1.0290576E2,-8.610133E1,-6.0452053E1,-4.2863552E1,-1.4421257E1,-7.1705864E1,-2.0788237E1,-4.2335148E1,-5.0254864E1,-6.4638176E1,-5.9458263E1,-3.2780396E1,-7.9538813E0,-2.3771692E1,8.306594E1,-7.118423E1,2.6537695E1,1.6014574E2,-5.3293567E0,9.411681E0,2.7036573E1,-1.9389814E1,-3.597618E0,2.0898273E1,3.1470808E1,-1.8611298E0,1.2255159E1,2.3728125E1,6.494751E1,2.4180067E1,2.9567286E1,4.4611267E1,8.691444E1,4.120541E1,5.837863E1,4.1974266E1,6.117519E1,3.6503307E1,1.3107072E2,7.434868E1,5.6355164E1,8.115187E1,8.84089E1,7.42756E1,1.1767828E2,9.047488E1,8.978375E1,1.0112566E2,1.0759241E2,1.2500624E2,1.1651292E2,1.3092632E2,1.6250517E2,1.3377734E2,1.6727196E2,2.1955374E2,1.4088333E2,1.5786278E2],"categories":[],"categories_nodes":[],"categories_segments":[],"categories_sizes":[],"default_left":[1,0,0,0,1,0,0,0,0,1,0,0,0,0,0,0,1,1,0,1,0,0,0,0,0,0,0,0,0,0,0,0,1,0,0,0,0,0,1,1,0,1,0,0,0,0,0,0,0,0,0,1,0,0,0,0,0,0,0,0,0,0,0,0,0,0,0,0,0,0,0,0,0,0,0,0,0,0,0,0,0,0,0,0,0,0,0,0,0,0,0,0,0,0,0,0,0,0,0,0,0,0,0,0,0,0,0,0,0,0,0,0,0,0,0,0,0,0,0,0,0,0,0,0,0,0,0],"id":13,"left_children":[1,3,5,7,9,11,13,15,17,19,21,23,25,27,29,31,33,35,37,39,41,43,45,47,49,51,53,55,57,59,61,63,65,67,69,71,73,75,77,79,81,83,85,87,89,91,93,95,97,99,101,103,105,107,109,111,113,115,117,119,121,123,125,-1,-1,-1,-1,-1,-1,-1,-1,-1,-1,-1,-1,-1,-1,-1,-1,-1,-1,-1,-1,-1,-1,-1,-1,-1,-1,-1,-1,-1,-1,-1,-1,-1,-1,-1,-1,-1,-1,-1,-1,-1,-1,-1,-1,-1,-1,-1,-1,-1,-1,-1,-1,-1,-1,-1,-1,-1,-1,-1,-1,-1,-1,-1,-1],"loss_changes":[1.4640554E10,2.6651827E9,2.0148408E9,4.4437146E8,4.4881446E8,3.1169357E8,3.205499E8,8.920525E7,5.436979E7,1.3321843E8,5.211897E7,5.6559616E7,3.644787E7,4.8971264E7,4.5464064E7,2.2560768E7,2.1863936E7,2.0805504E7,3.5078656E7,7.761498E7,1.3561704E7,3.914042E7,2.8701584E7,1.6450208E7,3.0807232E7,1.1772672E7,4.971968E7,1.6171776E7,1.052928E7,9.142784E6,5.596672E6,3.546112E6,1.2222976E7,1.3493888E7,4.326528E6,1.9608832E7,9.780416E6,1.7882944E7,9.431104E6,4.123872E7,3.157792E7,1.2194312E7,2.60964E6,1.9274084E7,2.695246E7,1.7757E7,1.8790622E7,7.221976E6,3.9298224E7,4.41264E6,6.018483E7,5.0148E6,3.866624E6,3.727997E7,3.2528832E7,7.96672E6,1.310528E7,1.424384E6,6.689024E6,4.148864E6,6.712832E6,5.339328E6,4.71616E5,0E0,0E0,0E0,0E0,0E0,0E0,0E0,0E0,0E0,0E0,0E0,0E0,0E0,0E0,0E0,0E0,0E0,0E0,0E0,0E0,0E0,0E0,0E0,0E0,0E0,0E0,0E0,0E0,0E0,0E0,0E0,0E0,0E0,0E0,0E0,0E0,0E0,0E0,0E0,0E0,0E0,0E0,0E0,0E0,0E0,0E0,0E0,0E0,0E0,0E0,0E0,0E0,0E0,0E0,0E0,0E0,0E0,0E0,0E0,0E0,0E0,0E0,0E0,0E0],"parents":[2147483647,0,0,1,1,2,2,3,3,4,4,5,5,6,6,7,7,8,